tree
version=v4
num_class=1
num_tree_per_iteration=1
label_index=0
max_feature_idx=536
objective=binary sigmoid:1
feature_names=APP_EXT_SOURCE_2 APP_DAYS_BIRTH APP_DAYS_ID_PUBLISH APP_AMT_ANNUITY APP_EXT_SOURCE_3 APP_DAYS_REGISTRATION APP_DAYS_EMPLOYED credit_to_income_ratio APP_EXT_SOURCE_1 max_overpayment_ratio_02 INS_AMT_PAYMENT_min BUREAU_DAYS_CREDIT_max APP_REGION_POPULATION_RELATIVE PREV_APP_DAYS_LAST_DUE_1ST_VERSION_max INS_DAYS_INSTALMENT_DAYS_ENTRY_PAYMENT_diff_mean normalized_days_to_instalment APP_DAYS_LAST_PHONE_CHANGE APP_AMT_CREDIT Pct_good_p_in_credit_curr INS_DAYS_INSTALMENT_DAYS_ENTRY_PAYMENT_diff_min APP_AMT_INCOME_TOTAL POS_CASH_Active avg_credit_approval_per_month PREV_APP_DAYS_DECISION_max BUREAU_DAYS_ENDDATE_FACT_max BUREAU_DAYS_CREDIT_ENDDATE_max PREV_APP_AMT_ANNUITY_min INS_AMT_INSTALMENT_min DEBT_CREDIT_RATIO INS_DAYS_INSTALMENT_DAYS_ENTRY_PAYMENT_diff_max BUREAU_AMT_CREDIT_SUM_min INS_DAYS_INSTALMENT_DAYS_ENTRY_PAYMENT_diff_sum APP_AMT_GOODS_PRICE PREV_APP_CNT_PAYMENT_mean BUREAU_DAYS_CREDIT_ENDDATE_skew BUREAU_DAYS_CREDIT_ENDDATE_mean BUREAU_DAYS_CREDIT_skew PREV_APP_SELLERPLACE_AREA_mean BUREAU_DAYS_CREDIT_UPDATE_max BUREAU_DAYS_CREDIT_UPDATE_skew BUREAU_AMT_CREDIT_SUM_skew INS_DAYS_INSTALMENT_DAYS_ENTRY_PAYMENT_diff_skew PREV_APP_DAYS_FIRST_DUE_max BUREAU_DAYS_CREDIT_mean BUREAU_AMT_CREDIT_SUM_mean BUREAU_AMT_CREDIT_SUM_max PREV_APP_DAYS_LAST_DUE_max overpayment_amount_ratio_01 PREV_APP_AMT_ANNUITY_mean INS_DAYS_ENTRY_PAYMENT_max PREV_APP_AMT_GOODS_PRICE_min PREV_APP_DAYS_TERMINATION_max BUREAU_DAYS_CREDIT_std PREV_APP_SELLERPLACE_AREA_max BUREAU_DAYS_CREDIT_UPDATE_mean BUREAU_DAYS_CREDIT_ENDDATE_std INS_AMT_PAYMENT_sum BUREAU_AMT_CREDIT_SUM_DEBT_skew BUREAU_DAYS_CREDIT_ENDDATE_min BUREAU_DAYS_ENDDATE_FACT_skew PREV_APP_SELLERPLACE_AREA_sum INS_AMT_INSTALMENT_AMT_PAYMENT_diff_max INS_AMT_INSTALMENT_max INS_DAYS_INSTALMENT_max BUREAU_DAYS_CREDIT_UPDATE_std PREV_APP_AMT_ANNUITY_max INS_AMT_PAYMENT_mean PREV_APP_AMT_APPLICATION_mean APP_OWN_CAR_AGE INS_AMT_INSTALMENT_AMT_PAYMENT_diff_mean BUREAU_DAYS_CREDIT_min PREV_APP_DAYS_LAST_DUE_1ST_VERSION_sum POS_CASH_CNT_INSTALMENT_SKEW INS_AMT_INSTALMENT_mean BUREAU_AMT_CREDIT_SUM_std PREV_APP_DAYS_DECISION_sum INS_AMT_INSTALMENT_sum BUREAU_AMT_CREDIT_SUM_DEBT_mean PREV_APP_RATE_DOWN_PAYMENT_mean INS_AMT_INSTALMENT_AMT_PAYMENT_diff_sum PREV_APP_DAYS_DECISION_mean PREV_APP_RATE_DOWN_PAYMENT_max BUREAU_DAYS_CREDIT_UPDATE_min PREV_APP_DAYS_LAST_DUE_1ST_VERSION_mean PREV_APP_AMT_DOWN_PAYMENT_sum PREV_APP_AMT_CREDIT_mean POS_CASH_SK_ID_PREV_COUNT BUREAU_DAYS_ENDDATE_FACT_std PREV_APP_SELLERPLACE_AREA_min PREV_APP_AMT_GOODS_PRICE_mean PREV_APP_AMT_ANNUITY_sum BUREAU_DAYS_ENDDATE_FACT_mean BUREAU_AMT_CREDIT_SUM_DEBT_max INS_DAYS_INSTALMENT_sum PREV_APP_DAYS_FIRST_DRAWING_NA_count INS_DAYS_INSTALMENT_DAYS_ENTRY_PAYMENT_zero_larger_sum PREV_APP_AMT_DOWN_PAYMENT_max PREV_APP_AMT_DOWN_PAYMENT_mean BUREAU_AMT_CREDIT_SUM_DEBT_std PREV_APP_AMT_CREDIT_min BUREAU_BUREAU_BALANCE_0_skew PREV_APP_DAYS_LAST_DUE_1ST_VERSION_min PREV_APP_AMT_CREDIT_max PREV_APP_RATE_DOWN_PAYMENT_sum INS_AMT_INSTALMENT_AMT_PAYMENT_diff_skew PREV_APP_DAYS_FIRST_DUE_mean BUREAU_BUREAU_BALANCE_X_skew POS_CASH_EARLIEST_STARTING INS_DAYS_INSTALMENT_min PREV_APP_RATE_DOWN_PAYMENT_min PREV_APP_AMT_APPLICATION_min PREV_APP_CNT_PAYMENT_sum POS_CASH_CNT_INSTALMENT_MIN PREV_APP_AMT_APPLICATION_max PREV_APP_AMT_DOWN_PAYMENT_NA_count APP_TOTALAREA_MODE INS_SK_ID_PREV_COUNT INS_AMT_PAYMENT_max BUREAU_BUREAU_BALANCE_0_min BUREAU_BUREAU_BALANCE_C_max BUREAU_BUREAU_BALANCE_0_mean BUREAU_BUREAU_BALANCE_C_mean APP_OBS_30_CNT_SOCIAL_CIRCLE PREV_APP_DAYS_DECISION_min BUREAU_AMT_CREDIT_MAX_OVERDUE_nan_count BUREAU_AMT_CREDIT_MAX_OVERDUE_mean afternoon BUREAU_BUREAU_BALANCE_0_max PREV_APP_AMT_DOWN_PAYMENT_min PREV_APP_DAYS_LAST_DUE_mean BUREAU_DAYS_ENDDATE_FACT_min PREV_APP_DAYS_LAST_DUE_sum PREV_APP_DAYS_FIRST_DUE_sum PREV_APP_DAYS_TERMINATION_mean INS_DAYS_INSTALMENT_mean APP_LANDAREA_AVG POS_CASH_LATEST_STARTING BUREAU_BUREAU_BALANCE_MONTH_COUNT_skew BUREAU_AMT_ANNUITY_nan_count BUREAU_AMT_CREDIT_SUM_LIMIT_nan_count POS_CASH_CNT_INSTALMENT_MAX CC_AMT_DRAWINGS_ATM_CURRENT_mean INS_DAYS_ENTRY_PAYMENT_min BUREAU_AMT_CREDIT_MAX_OVERDUE_max PREV_APP_AMT_APPLICATION_sum PREV_APP_AMT_CREDIT_sum POS_CASH_MAX_SK_DPD_DEF_MEAN APP_BASEMENTAREA_MODE BUREAU_BUREAU_BALANCE_C_skew PREV_APP_DAYS_FIRST_DUE_min Workday BUREAU_AMT_CREDIT_MAX_OVERDUE_std BUREAU_BUREAU_BALANCE_0_std BUREAU_BUREAU_BALANCE_C_std BUREAU_BUREAU_BALANCE_X_mean BUREAU_AMT_CREDIT_SUM_LIMIT_skew APP_AMT_REQ_CREDIT_BUREAU_YEAR PREV_APP_DAYS_TERMINATION_min BUREAU_AMT_CREDIT_SUM_DEBT_min PREV_APP_NAME_CONTRACT_STATUS_Refused APP_OBS_60_CNT_SOCIAL_CIRCLE BUREAU_AMT_ANNUITY_skew CNT_DRAWINGS_CURRENT INS_DAYS_ENTRY_PAYMENT_mean APP_YEARS_BEGINEXPLUATATION_AVG PREV_APP_DAYS_TERMINATION_sum POS_CASH_Completed INS_DAYS_ENTRY_PAYMENT_sum BUREAU_BUREAU_BALANCE_1_mean APP_YEARS_BEGINEXPLUATATION_MODE INS_AMT_INSTALMENT_AMT_PAYMENT_zero_larger_sum PERCENTAGE_MIN_MISSED_PAYMENTS PREV_APP_CHANNEL_TYPE_Countrywide APP_LANDAREA_MODE morning CC_AMT_INST_MIN_REGULARITY_zero_count PREV_APP_CNT_PAYMENT_min PREV_APP_CNT_PAYMENT_max BUREAU_AMT_CREDIT_SUM_LIMIT_max APP_ENTRANCES_AVG BUREAU_CREDIT_ACTIVE_Active PREV_APP_NAME_SELLER_INDUSTRY_Connectivity BUREAU_AMT_ANNUITY_min BUREAU_BUREAU_BALANCE_1_skew APP_BASEMENTAREA_AVG APP_APARTMENTS_AVG PREV_APP_NAME_TYPE_SUITE_Unaccompanied BUREAU_AMT_CREDIT_SUM_DEBT_nan_count PREV_APP_NAME_YIELD_GROUP_high APP_LIVINGAREA_MODE APP_NONLIVINGAREA_MODE APP_APARTMENTS_MODE POS_CASH_MAX_SK_DPD_MEAN BUREAU_AMT_ANNUITY_mean BUREAU_AMT_CREDIT_MAX_OVERDUE_skew PREV_APP_NAME_YIELD_GROUP_low_normal PREV_APP_NAME_YIELD_GROUP_low_action BUREAU_AMT_CREDIT_SUM_LIMIT_mean PREV_APP_NAME_YIELD_GROUP_middle document_complete CNT_DRAWINGS_ATM_CURRENT source_1_3_zero PREV_APP_NAME_SELLER_INDUSTRY_Consumerelectronics INS_NUM_INSTALMENT_VERSION_nunique APP_NONLIVINGAREA_AVG BUREAU_BUREAU_BALANCE_C_min BUREAU_BUREAU_BALANCE_X_min BUREAU_BUREAU_BALANCE_MONTH_COUNT_std APP_COMMONAREA_MODE BUREAU_BUREAU_BALANCE_MONTH_COUNT_min APP_REGION_RATING_CLIENT_W_CITY APP_COMMONAREA_AVG BUREAU_AMT_ANNUITY_std PREV_APP_DAYS_LAST_DUE_min INS_AMT_INSTALMENT_AMT_PAYMENT_diff_min BUREAU_AMT_CREDIT_SUM_LIMIT_std BUREAU_SK_ID_BUREAU_COUNT Weekend POS_CASH_MAX_SK_DPD_MAX BUREAU_BUREAU_BALANCE_X_max APP_NAME_FAMILY_STATUS_Married BUREAU_CREDIT_ACTIVE_Closed BUREAU_BUREAU_BALANCE_MONTH_COUNT_mean PREV_APP_NAME_CASH_LOAN_PURPOSE_XAP AMT_PAYMENT_CURRENT APP_LIVINGAREA_AVG PREV_APP_CODE_REJECT_REASON_HC CC_AMT_BALANCE_min APP_CODE_GENDER_F PREV_APP_NAME_PAYMENT_TYPE_XNA PREV_APP_NAME_PRODUCT_TYPE_walkin POS_CASH_MAX_SK_DPD_MIN APP_CNT_CHILDREN APP_CNT_FAM_MEMBERS PREV_APP_PRODUCT_COMBINATION_POShouseholdwithinterest APP_DEF_60_CNT_SOCIAL_CIRCLE PREV_APP_CHANNEL_TYPE_APCashloan APP_FLAG_WORK_PHONE PREV_APP_CHANNEL_TYPE_RegionalLocal APP_FLAG_DOCUMENT_3 APP_DEF_30_CNT_SOCIAL_CIRCLE BUREAU_AMT_CREDIT_MAX_OVERDUE_min PREV_APP_NAME_GOODS_CATEGORY_Mobile PREV_APP_NAME_CASH_LOAN_PURPOSE_XNA BUREAU_DAYS_CREDIT_ENDDATE_nan_count APP_AMT_REQ_CREDIT_BUREAU_QRT APP_FLAG_OWN_CAR BUREAU_AMT_ANNUITY_max BUREAU_DAYS_ENDDATE_FACT_nan_count PREV_APP_CHANNEL_TYPE_Creditandcashoffices PREV_APP_DAYS_FIRST_DRAWING_min CC_AMT_BALANCE_mean BUREAU_BUREAU_BALANCE_X_std AMT_CREDIT_LIMIT_ACTUAL PREV_APP_NAME_TYPE_SUITE_Family PREV_APP_CHANNEL_TYPE_Stone APP_CODE_GENDER_M PREV_APP_NAME_PAYMENT_TYPE_Cashthroughthebank BUREAU_BUREAU_BALANCE_1_std APP_ORGANIZATION_TYPE_Selfemployed CC_AMT_DRAWINGS_CURRENT_mean APP_YEARS_BUILD_AVG PREV_APP_NFLAG_INSURED_ON_APPROVAL_00 POS_CASH_MAX_SK_DPD_DEF_MAX PREV_APP_NAME_CLIENT_TYPE_Repeater APP_ORGANIZATION_TYPE_BusinessEntityType3 PREV_APP_NFLAG_INSURED_ON_APPROVAL_10 CNT_DRAWINGS_POS_CURRENT PREV_APP_CHANNEL_TYPE_Contactcenter CC_AMT_DRAWINGS_ATM_CURRENT_max APP_BASEMENTAREA_MEDI BUREAU_BUREAU_BALANCE_MONTH_COUNT_max PREV_APP_NAME_PRODUCT_TYPE_XNA APP_NONLIVINGAREA_MEDI CC_AMT_DRAWINGS_POS_CURRENT_mean PREV_APP_PRODUCT_COMBINATION_CashXSellhigh CC_AMT_DRAWINGS_POS_CURRENT_max APP_NAME_INCOME_TYPE_Working CC_NAME_CONTRACT_STATUS_Completed CC_AMT_DRAWINGS_CURRENT_max BUREAU_BUREAU_BALANCE_1_max APP_YEARS_BUILD_MODE CC_AMT_DRAWINGS_ATM_CURRENT_sum PREV_APP_NAME_PORTFOLIO_XNA PREV_APP_SK_ID_PREV_COUNT PREV_APP_PRODUCT_COMBINATION_CashXSelllow prev_app_amt_app_sum_standard APP_ENTRANCES_MODE APP_NAME_FAMILY_STATUS_Singlenotmarried CC_AMT_INST_MIN_REGULARITY_sum APP_LIVINGAPARTMENTS_MODE APP_OCCUPATION_TYPE_Laborers CC_AMT_INST_MIN_REGULARITY_mean PREV_APP_NAME_YIELD_GROUP_XNA PREV_APP_NAME_GOODS_CATEGORY_Computers APP_LIVINGAPARTMENTS_AVG APP_FLAG_PHONE APP_APARTMENTS_MEDI PREV_APP_PRODUCT_COMBINATION_POSmobilewithinterest PREV_APP_AMT_APPLICATION_AMT_GOODS_PRICE_zero_larger_sum APP_OCCUPATION_TYPE_Salesstaff PREV_APP_PRODUCT_COMBINATION_CashStreethigh APP_REG_CITY_NOT_LIVE_CITY PREV_APP_CODE_REJECT_REASON_SCO CC_AMT_DRAWINGS_ATM_CURRENT_zero_count PREV_APP_CODE_REJECT_REASON_XAP APP_NONLIVINGAPARTMENTS_MODE PREV_APP_PRODUCT_COMBINATION_CardStreet PREV_APP_PRODUCT_COMBINATION_POSindustrywithinterest APP_NAME_EDUCATION_TYPE_Highereducation PREV_APP_NAME_CONTRACT_TYPE_Revolvingloans CC_AMT_INST_MIN_REGULARITY_max APP_OCCUPATION_TYPE_Corestaff APP_OCCUPATION_TYPE_Drivers PREV_APP_NAME_SELLER_INDUSTRY_XNA PREV_APP_NAME_PRODUCT_TYPE_xsell CC_AMT_RECEIVABLE_PRINCIPAL_max PREV_APP_NAME_GOODS_CATEGORY_PhotoCinemaEquipment prev_app_amt_credit_sum_standard BUREAU_CNT_CREDIT_PROLONG_skew BUREAU_AMT_CREDIT_SUM_LIMIT_min APP_ELEVATORS_AVG APP_FLAG_OWN_REALTY PREV_APP_PRODUCT_COMBINATION_CashXSellmiddle CC_AMT_RECIVABLE_min APP_WEEKDAY_APPR_PROCESS_START_Workday_FLAG POS_CASH_MAX_SK_DPD_DEF_MIN APP_ORGANIZATION_TYPE_Construction PREV_APP_NAME_GOODS_CATEGORY_AudioVideo PREV_APP_PRODUCT_COMBINATION_CashStreetlow PREV_APP_NAME_TYPE_SUITE_Spousepartner APP_LIVE_CITY_NOT_WORK_CITY PREV_APP_NAME_CLIENT_TYPE_Refreshed PREV_APP_NAME_CLIENT_TYPE_New APP_WALLSMATERIAL_MODE_Stonebrick CC_MAX_SK_DPD_MIN PREV_APP_NAME_GOODS_CATEGORY_ConsumerElectronics CC_SK_ID_PREV_COUNT PREV_APP_PRODUCT_COMBINATION_CardXSell PREV_APP_CODE_REJECT_REASON_LIMIT normalized_max_overdue APP_NAME_EDUCATION_TYPE_Secondarysecondaryspecial PREV_APP_NAME_CASH_LOAN_PURPOSE_Other APP_LIVINGAPARTMENTS_MEDI APP_ORGANIZATION_TYPE_School APP_COMMONAREA_MEDI CC_AMT_DRAWINGS_CURRENT_zero_count APP_REG_CITY_NOT_WORK_CITY POS_CASH_MAX_SK_DPD_SKEW PREV_APP_NAME_CONTRACT_TYPE_Cashloans CC_AMT_DRAWINGS_POS_CURRENT_sum CC_AMT_DRAWINGS_OTHER_CURRENT_max AMT_PAYMENT_TOTAL_CURRENT APP_ORGANIZATION_TYPE_BusinessEntityType2 CNT_INSTALMENT_MATURE_CUM PREV_APP_NAME_CONTRACT_STATUS_Canceled APP_HOUR_APPR_PROCESS_START_Morning_FLAG CC_AMT_DRAWINGS_CURRENT_sum BUREAU_AMT_CREDIT_SUM_OVERDUE_mean APP_FLOORSMAX_AVG PREV_APP_NAME_CONTRACT_TYPE_Consumerloans APP_ORGANIZATION_TYPE_Transporttype3 PREV_APP_NAME_TYPE_SUITE_Other_B CC_AMT_RECEIVABLE_PRINCIPAL_min CC_AMT_RECEIVABLE_PRINCIPAL_mean APP_LIVINGAREA_MEDI PREV_APP_NAME_PORTFOLIO_POS CC_AMT_BALANCE_sum PREV_APP_PRODUCT_COMBINATION_Cash APP_ORGANIZATION_TYPE_Tradetype7 BUREAU_AMT_CREDIT_SUM_OVERDUE_std PREV_APP_NAME_CONTRACT_STATUS_Approved APP_NAME_FAMILY_STATUS_Civilmarriage APP_NAME_EDUCATION_TYPE_Lowersecondary POS_CASH_MAX_SK_DPD_DEF_SKEW APP_ORGANIZATION_TYPE_Industrytype9 CC_AMT_DRAWINGS_CURRENT_min BUREAU_BUREAU_BALANCE_1_min APP_LANDAREA_MEDI APP_YEARS_BEGINEXPLUATATION_MEDI APP_ELEVATORS_MODE CC_AMT_BALANCE_max CC_AMT_DRAWINGS_ATM_CURRENT_min CC_AMT_RECIVABLE_mean APP_NAME_CONTRACT_TYPE PREV_APP_CHANNEL_TYPE_Channelofcorporatesales APP_NAME_INCOME_TYPE_Commercialassociate PREV_APP_NAME_CASH_LOAN_PURPOSE_Repairs APP_FLOORSMAX_MODE APP_FLOORSMIN_AVG APP_OCCUPATION_TYPE_Medicinestaff PREV_APP_CODE_REJECT_REASON_SCOFR APP_NAME_HOUSING_TYPE_Houseapartment PREV_APP_NAME_CASH_LOAN_PURPOSE_Weddinggiftholiday APP_NAME_TYPE_SUITE_Family BUREAU_CNT_CREDIT_PROLONG_std APP_OCCUPATION_TYPE_Accountants PREV_APP_NAME_TYPE_SUITE_Children APP_NAME_TYPE_SUITE_Unaccompanied CC_NAME_CONTRACT_STATUS_Active PREV_APP_NAME_GOODS_CATEGORY_Furniture PREV_APP_NAME_GOODS_CATEGORY_XNA unstable_phone01 APP_OCCUPATION_TYPE_Cleaningstaff APP_OCCUPATION_TYPE_LowskillLaborers APP_NAME_HOUSING_TYPE_Withparents APP_NAME_HOUSING_TYPE_Municipalapartment BUREAU_BUREAU_BALANCE_3_skew unstable_id03 CC_MAX_SK_DPD_DEF_MIN APP_ORGANIZATION_TYPE_Police PREV_APP_PRODUCT_COMBINATION_POShouseholdwithoutinterest APP_NONLIVINGAPARTMENTS_AVG PREV_APP_NAME_SELLER_INDUSTRY_Furniture APP_REGION_RATING_CLIENT APP_AMT_REQ_CREDIT_BUREAU_WEEK PREV_APP_NAME_GOODS_CATEGORY_ConstructionMaterials APP_AMT_REQ_CREDIT_BUREAU_MON APP_NAME_INCOME_TYPE_Stateservant BUREAU_AMT_CREDIT_SUM_OVERDUE_max APP_NAME_HOUSING_TYPE_Officeapartment APP_NAME_FAMILY_STATUS_Separated BUREAU_BUREAU_BALANCE_5_min BUREAU_BUREAU_BALANCE_4_min CC_AMT_INST_MIN_REGULARITY_min BUREAU_BUREAU_BALANCE_2_mean APP_FLOORSMIN_MODE min_overpayment_amount_ratio_04 BUREAU_CREDIT_DAY_OVERDUE_mean APP_ORGANIZATION_TYPE_Military APP_LIVE_REGION_NOT_WORK_REGION unstable_reg07 APP_WALLSMATERIAL_MODE_Panel PREV_APP_PRODUCT_COMBINATION_CashStreetmiddle PREV_APP_NAME_GOODS_CATEGORY_AutoAccessories PREV_APP_PRODUCT_COMBINATION_POSmobilewithoutinterest PREV_APP_NAME_SELLER_INDUSTRY_Construction APP_AMT_REQ_CREDIT_BUREAU_DAY APP_OCCUPATION_TYPE_Securitystaff BUREAU_CNT_CREDIT_PROLONG_mean APP_ORGANIZATION_TYPE_LegalServices APP_OCCUPATION_TYPE_Managers APP_FLAG_DOCUMENT_6 CC_AMT_DRAWINGS_POS_CURRENT_min CC_AMT_RECEIVABLE_PRINCIPAL_sum BUREAU_CREDIT_DAY_OVERDUE_std APP_NAME_EDUCATION_TYPE_Academicdegree PREV_APP_PRODUCT_COMBINATION_POSotherwithinterest PREV_APP_NAME_PORTFOLIO_Cards PREV_APP_CODE_REJECT_REASON_XNA PREV_APP_NAME_CONTRACT_STATUS_Unusedoffer APP_ORGANIZATION_TYPE_Tradetype6 BUREAU_BUREAU_BALANCE_5_std PREV_APP_PRODUCT_COMBINATION_POSindustrywithoutinterest BUREAU_BUREAU_BALANCE_2_skew APP_ORGANIZATION_TYPE_Security PREV_APP_CODE_REJECT_REASON_VERIF APP_FLAG_DOCUMENT_8 PREV_APP_DAYS_FIRST_DRAWING_max POS_CASH_CNT_INSTALMENT_COUNT APP_NAME_FAMILY_STATUS_Widow BUREAU_CREDIT_ACTIVE_Sold APP_ORGANIZATION_TYPE_Industrytype3 PREV_APP_NAME_GOODS_CATEGORY_SportandLeisure APP_ORGANIZATION_TYPE_Realtor PREV_APP_NAME_GOODS_CATEGORY_ClothingandAccessories payment_relative_income_binary_07 APP_FONDKAPREMONT_MODE_notspecified APP_ORGANIZATION_TYPE_Other APP_OCCUPATION_TYPE_Cookingstaff PREV_APP_NAME_PORTFOLIO_Cash APP_NAME_TYPE_SUITE_Children BUREAU_BUREAU_BALANCE_3_max CC_AMT_RECIVABLE_max BUREAU_CREDIT_DAY_OVERDUE_skew PREV_APP_NAME_SELLER_INDUSTRY_Industry PREV_APP_NAME_TYPE_SUITE_Other_A PREV_APP_NAME_SELLER_INDUSTRY_Clothing BUREAU_CREDIT_DAY_OVERDUE_max CC_AMT_DRAWINGS_POS_CURRENT_zero_count CC_AMT_DRAWINGS_OTHER_CURRENT_mean APP_NONLIVINGAPARTMENTS_MEDI APP_FLOORSMAX_MEDI APP_YEARS_BUILD_MEDI APP_FLAG_DOCUMENT_11 BUREAU_AMT_CREDIT_SUM_OVERDUE_skew APP_FLAG_DOCUMENT_13 APP_ORGANIZATION_TYPE_Tradetype3 POS_CASH_MAX_SK_DPD_DEF_NON_0_COUNT APP_ORGANIZATION_TYPE_BusinessEntityType1 PREV_APP_NAME_CASH_LOAN_PURPOSE_Buyingausedcar APP_NAME_TYPE_SUITE_Spousepartner APP_OCCUPATION_TYPE_Waitersbarmenstaff PREV_APP_FLAG_LAST_APPL_PER_CONTRACT_Y PREV_APP_NAME_CASH_LOAN_PURPOSE_Urgentneeds unstable_reg05 BUREAU_BUREAU_BALANCE_3_mean APP_OCCUPATION_TYPE_Highskilltechstaff BUREAU_BUREAU_BALANCE_5_mean payment_relative_income_binary_03 APP_NAME_TYPE_SUITE_Other_B BUREAU_BUREAU_BALANCE_3_std APP_NAME_EDUCATION_TYPE_Incompletehigher APP_REG_REGION_NOT_WORK_REGION BUREAU_BUREAU_BALANCE_5_max PREV_APP_NAME_SELLER_INDUSTRY_Autotechnology PREV_APP_NAME_GOODS_CATEGORY_Vehicles extra_credit CC_NAME_CONTRACT_STATUS_Sentproposal BUREAU_BUREAU_BALANCE_2_min PREV_APP_NAME_GOODS_CATEGORY_Homewares APP_ORGANIZATION_TYPE_Agriculture APP_WALLSMATERIAL_MODE_Wooden APP_ORGANIZATION_TYPE_Government APP_EMERGENCYSTATE_MODE_No PREV_APP_RATE_INTEREST_PRIMARY_sum POS_CASH_Signed CC_MAX_SK_DPD_MAX PREV_APP_RATE_INTEREST_PRIMARY_max CC_AMT_TOTAL_RECEIVABLE_max APP_WALLSMATERIAL_MODE_Others BUREAU_CREDIT_CURRENCY_currency1 unstable_phone02 APP_ORGANIZATION_TYPE_Housing PREV_APP_RATE_INTEREST_PRIMARY_min PREV_APP_NAME_CASH_LOAN_PURPOSE_Gasificationwatersupply APP_FONDKAPREMONT_MODE_regoperaccount PREV_APP_NAME_GOODS_CATEGORY_MedicalSupplies APP_ORGANIZATION_TYPE_Telecom APP_ORGANIZATION_TYPE_Kindergarten PREV_APP_NAME_GOODS_CATEGORY_Medicine CC_AMT_DRAWINGS_OTHER_CURRENT_zero_count PREV_APP_RATE_INTEREST_PRIMARY_NA_count APP_ORGANIZATION_TYPE_Restaurant APP_ORGANIZATION_TYPE_Medicine APP_FLAG_DOCUMENT_5 APP_ORGANIZATION_TYPE_Transporttype4
feature_infos=[0:0.85499966640470115] [-25229:-7489] [-7197:0] [0:225000] [0:0.89600954949483957] [-24672:0] [-17912:0] [0.037499812500937403:49.227200000000003] [0:0.9516239622079844] [-30.52744643563797:0.12562735158698751] [0:2291330.835] [-2922:0] [0.00029:0.072508000000000003] [-2800:2032] [-1406:534.45356125356125] [-21870:0.10255809729742631] [-4292:0] [45000:4050000] [0:6.666666666666667] [-2884:101] [25650:18000090] [0:1] [-217739612.09533128:1572669484.5913684] [-2922:0] [-2887:0] [-41875:31199] [0:300425.44500000001] [0:2291330.835] [-103748704.5:225000000] [-42:1681] [0:142290000] [-41310:10529] [0:4050000] [0:72] [-5.3750154517816924:6.34996763244839] [-41875:31198] [-5.2211766636393717:3.0638724916064888] [-1:4000000] [-2910:372] [-6.8107052633913368:2.9761244261328645] [-5:6.9045648626442713] [-2.7389487165810498:2.7708664637820504] [-2890:0] [-2922:0] [0:142290000] [0:170100000] [-2889:0] [-0.99999996800900959:355112.59090909082] [0:300425.44500000001] [-2947:0] [0:4050000] [-2789:0] [0:2042.831490847936] [-1:4000000] [-20939:0] [0:38718.338910650593] [0:25537053.780000001] [-4.3510512810832056:7.3162532272969889] [-42060:31198] [-5.1374857843050989:2.698057531019288] [-39:4002296] [-11760.480000000003:2424726.4050000003] [0:3771487.8450000002] [-2922:0] [0:29612.217782530239] [0:418058.14500000002] [0:2291330.835] [0:4050000] [0:91] [-290454.54545454547:111774.60000000001] [-2922:0] [-26429:6379] [-3.3166247903554007:3.62791906091502] [0:2291330.835] [0:73905273.362824425] [-81793:0] [0:23274726.930000003] [-1083614.6699999999:37610901.899999999] [0:0.98973987757093118] [-4274392.0049999999:3037735.5750000002] [-2922:0] [0:1] [-41947:0] [-2800:1797] [0:4037849.5950000002] [0:4050000] [0:295] [0:16511.728846489699] [-1:4000000] [0:4050000] [0:2051102.655] [-8376.5:0] [-25959.645:170100000] [-514493:0] [0:1] [0:325] [0:3060045] [0:2025000] [0:54028665.437509708] [0:4050000] [-2.9316710466512159:6.0540722894839263] [-2801:1797] [0:4509688.5] [0:4.4763511363600426] [-4.2426406871192839:4.3588989435406731] [-2890:0] [-3.6055498206915191:5.8302725611476731] [0:96] [-2922:0] [-1.3693400421089204e-05:0.98973987757093118] [0:4050000] [0:1788] [0:72] [0:5850000] [0:1] [0:1] [0:372] [0:3771487.8450000002] [0:0.99998863649276704] [0:0.99998958344183919] [0:0.99998882380126763] [0:0.99998863649276704] [0:348] [-2922:0] [0:53] [0:115987185] [0:55] [0:0.9999894737950128] [-0.90000000000000002:2025000] [-2889:0] [-42023:0] [-27385:0] [-31647:0] [-2789:0] [-2922:0] [0:1] [0:96] [-2.8668823889093731:5.2190823426821256] [0:54] [0:53] [0:72] [0:675000] [-3160:0] [0:115987185] [0:36791914.5] [0:41461128] [0:3068] [0:1] [-3.4905053285084766:5.1961524227066329] [-2892:0] [0:56] [0:6492906.81939351] [0:0.70708321174615596] [0:0.70709033722521675] [0:0.99998958344183919] [-3.7029693212047694:6.9830055992553781] [0:25] [-2848:0] [-3109510.98:37610901.899999999] [0:58] [0:344] [-5.1961524227066365:5.3760969488465173] [0:165] [-2949:0] [0:1] [-27477:0] [0:1] [-516019:0] [0:0.8332870396089106] [0:1] [0:370] [-1:76.92307692307692] [0:53] [0:1] [0:45] [0:96] [0:72] [0:84] [0:3375000] [0:1] [0:22] [0:53] [0:24016036.5] [-2.2138237906487004:7.2111025509279791] [0:1] [0:1] [0:37] [0:22] [0:26] [0:1] [0:1] [0:1] [0:3715] [0:27282428.752500001] [-2.0794323948201674:5.7899828865486596] [0:30] [0:23] [-49013.813571428575:2137500] [0:52] [0:3] [0:51] [0:2.2170598562461995e-05] [0:48] [0:51] [0:1] [0:0.99998863649276704] [0:0.99998958344183919] [0:66.468037431535464] [0:1] [0:96] [1:3] [0:1] [0:38580069.479354896] [-2889:0] [-2630908.9350000001:7543.5749999999989] [0:1858805.0597090595] [0:58] [0:53] [0:4231] [0:0.99998969082792954] [0:1] [0:52] [0:96] [0:52] [0:4289207.4450000003] [0:1] [0:58] [-420250.185:869873.53500000003] [0:1] [0:58] [0:36] [0:3715] [0:19] [0:20] [0:20] [0:24] [0:37] [0:1] [0:18] [0:1] [0:34] [0:115987185] [0:24] [0:60] [0:42] [0:19] [0:1] [0:57476227.5] [0:22] [0:64] [-2921:0] [-2930.2325581395348:928686.32357142877] [0:0.70709941556763534] [0:2475000] [0:19] [0:28] [0:1] [0:58] [0:0.53028589539862747] [0:1] [0:1125000] [0:1] [0:21] [0:3361] [0:66] [0:1] [0:23] [0:165] [0:22] [0:2115000] [0:1] [0:96] [0:60] [0:1] [0:918645.45975000004] [0:15] [0:2060030.1599999999] [0:1] [0:45] [0:2115000] [0:0.99950024987506236] [0:1] [0:8384850] [0:58] [0:67] [0:24] [-0.60892931611437262:27.199740152396217] [0:1] [0:1] [0:2025557.325] [0:1] [0:1] [0:42161.864400000006] [0:58] [0:16] [0:1] [0:1] [0:1] [0:29] [0:61] [0:1] [0:24] [0:1] [0:25] [0:96] [0:59] [0:1] [0:27] [0:28] [0:1] [0:30] [0:188976.60000000001] [0:1] [0:1] [0:64] [0:51] [0:1354829.2649999999] [0:11] [-0.61737308530185642:27.739103044045464] [-1.732050807568877:6.7082039324993685] [-399166.875:1350000] [0:1] [0:1] [0:50] [-420250.185:855565.875] [0:1] [0:3068] [0:1] [0:14] [0:30] [0:18] [0:1] [0:28] [0:22] [0:1] [0:2831] [0:20] [0:192] [0:15] [0:27] [-0.52886622116102611:4.8832811510699914] [0:1] [0:18] [0:1] [0:1] [0:1] [0:96] [0:1] [-2.2360679774997898:4.4721359549995805] [0:60] [0:18372909.195] [0:1529847] [0:4278315.6900000004] [0:1] [0:120] [0:52] [0:1] [0:18469299.195] [0:1617403.5] [0:1] [0:45] [0:1] [0:9] [-423305.82000000001:854043.07499999995] [-2930.2325581395348:884547.88071428577] [0:1] [0:43] [-126000:29980484.415000003] [0:58] [0:1] [0:1878340.5] [0:23] [0:1] [0:1] [-2.2360679774997898:4.4721359549995805] [0:1] [-519.57000000000005:1125000] [0:0.8332870396089106] [0:1] [0:1] [0:1] [0:1354829.2649999999] [-6827.3100000000004:675000] [-2930.2325581395348:913096.63928571425] [0:1] [0:31] [0:1] [0:18] [0:1] [0:1] [0:1] [0:23] [0:1] [0:6] [0:1] [0:3.5777087639996639] [0:1] [0:11] [0:1] [0:162] [0:11] [0:64] [0:1] [0:1] [0:1] [0:1] [0:1] [-2.0705799746360052:5.2915026221291779] [0:1] [0:2650] [0:1] [0:24] [0:1] [0:14] [1:3] [0:8] [0:27] [0:27] [0:1] [0:3756681] [0:1] [0:1] [0:0.91377734866640237] [0:0.099998750015624804] [0:27200.924999999999] [0:0.24071515197192389] [0:1] [0:1] [0:2770] [0:1] [0:1] [0:1] [0:1] [0:24] [0:9] [0:15] [0:27] [0:9] [0:1] [0:6] [0:1] [0:1] [0:1] [0:720177.43500000006] [-126000:28641132.495000001] [0:1856.155300614688] [0:1] [0:13] [0:21] [0:10] [0:16] [0:1] [0:0.62435360090300573] [0:9] [-2.0587763339291576:6.7082039324993659] [0:1] [0:5] [0:1] [-2921:0] [0:24] [0:1] [0:9] [0:1] [0:4] [0:1] [0:11] [0:1] [0:1] [0:1] [0:1] [0:51] [0:1] [0:0.33329630041106539] [0:1354829.2649999999] [-2.2359605965345781:7.1414284285428513] [0:9] [0:16] [0:10] [0:2792] [0:96] [0:149343.24857142856] [0:1] [0:1] [0:1] [0:1] [-1.7320508075688781:7.1414284285428469] [0:1] [0:1] [0:8] [0:1] [0:9] [0:1] [0:1] [0:67] [0:13] [0:1] [0:0.1110987668036884] [0:1] [0:0.95662618257442844] [0:1] [0:1] [0:0.13098558355771259] [0:1] [0:1] [0:0.99990000999900019] [0:9] [0:7] [0:1] [0:1] [0:0.22950443435353521] [0:9] [0:1] [0:1] [0:1] [0:1] [0:1] [0:1] [0:2831] [0:1] [0:1354829.2649999999] [0:1] [0:58] [0:1] [0:1] [0:1] [0:6] [0:1] [0:7] [0:1] [0:1] [0:5] [0:96] [0:1] [0:1] [0:1] [0:1] [0:1]
tree_sizes=1195 1198 1222 1193 1194 1209 1221 1226 1220 1210 1224 1218 1225 1211 1219 1238 1203 1230 1229 1222 1204 1209 1225 1207 1212 1242 1228 1217 1235 1214 1219 1238 1230 1230 1227 1217 1236 1239 1219 1220 1223 1237 1241 1236 1224 1236 1242 1234 1221 1221 1240 1199 1251 1205 1240 1224 1235 1231 1228 1239 1236 1215 1220 1195 1199 1234 1229 1207 1234 1231 1240 1224 1238 1234 1243 1236 1213 1242 1217 1248 1240 1227 1246 1230 1174 1247 1230 1236 1234 1239 1172 1244 1222 1217 1227 1241 1245 1244 1185 1214 1248 1239 1212 1222 1238 1200 1226 1214 1210 1222 1212 1237 1184 1230 1198 1238 1220 1200 1241 1253 1234 1197 1230 1225 1189 1238 1222 1231 1242 1241 1239 1223 1227 1227 1185 1201 1214 1239 1189 1244 1236 1123 1237 1224 1228 1232 1237 1222 1220 1239 1210 1238 1188 1222 1175 1169 1219 1190 1176 1210 1239 1144 1231 1210 1210 1043 1157 1213 1187 1236 1251 1243 1194 1226 1165 1216 1182 1228 1235 1179 1097 1204 1191 1136 1091 1189 1167 1178 1237 1129 1168 1202 1191 1201 1163 1210 1133 1182 1136 1187 1045 1192 1117 1151 1118 1182 1206 1114 1189 1166 1190 1120 1161 1175 1217 1204 1210 1030 1099 1028 1114 1213 1144 1201 1229 1161 1143 1158 1154 1150 1138 1174 1049 1178 1157 1165 1163 1157 1127 1137 1210 1241 1159 1166 1204 1183 1056 1189 1070 1185 1112 1197 1146 1162 1094 1184 1063 1163 1127 1047 1069 1152 1166 1068 1172 1132 1045 1186 1169 1113 1183 1119 1026 1095 1194 1164 1228 1171 1098 1105 1032 1191 1089 1137 1035 1137 1224 1082 1138 1223 1113 1117 1082 1144 1186 1039 1194 1240 1234 1177 1214 1092 1115 1183 1137 1065 1182 1134 1072 1146 1139 1138 1061 1167 1212 1111 1104 1188 1205 1209 1108 1228 1160 1194 1134 1190 1140 1124 1117 1162 1094 1204 1165 1095 1069 1172 1029 1129 1232 1017 1171 1131 1065 1157 1150 1112 1065 1184 1061 1043 1151 1129 1174 1104 1163 1141 1170 1111 1065 1154 1172 1117 1127 1202 1111 1198 1032 1037 1166 1059 1094 1113 1173 1071 1224 1052 1098 1134 1149 1124 1106 1076 1171 1107 1099 1137 1074 1242 1194 1084 1136 1141 1180 1119 1225 1167 1176 1159 1032 1171 1134 1171 1136 1033 1161 1102 1216 1119 1146

Tree=0
num_leaves=10
num_cat=0
split_feature=0 0 43 0 43 43 18 28 28
split_gain=3347.15 955.451 547.471 501.996 347.003 270.387 238.988 161.683 135.306
threshold=0.40543176537313236 0.12660746710944168 -822.97619047619037 0.62066904684857682 -722.93333333333328 -641.4142857142856 0.82562958318856061 0.55193571601389391 0.43715553829456866
decision_type=2 2 2 2 2 2 2 2 2
left_child=1 5 -3 4 -2 -1 -4 -6 -5
right_child=3 2 6 8 7 -7 -8 -9 -10
leaf_value=-2.3099132851869855 -2.4596864946894725 -2.4189131971674334 -2.2634623914843561 -2.4927730327197506 -2.4251800553811389 -2.1791313892251631 -2.3583660591719124 -2.3612040548891313 -2.4558619441416227
leaf_weight=387.83210550248623 3300.951406955719 1588.2860164493322 378.7782369852066 3897.3193365037441 1523.2762720137835 332.54413791745901 1175.6670905798674 554.95761288702488 1465.7619433179498
leaf_count=5226 44480 21402 5104 52516 20526 4481 15842 7478 19751
internal_value=-2.43248 -2.35265 -2.37691 -2.46119 -2.43939 -2.24819 -2.33461 -2.40763 -2.48287
internal_weight=0 3863.11 3142.73 10742.3 5379.19 720.376 1554.45 2078.23 5363.08
internal_count=196806 52055 42348 144751 72484 9707 20946 28004 72267
is_linear=0
shrinkage=1


Tree=1
num_leaves=10
num_cat=0
split_feature=4 0 0 0 1 77 0 4 228
split_gain=2996.98 1955.78 496.132 425.68 298.047 238.602 216.473 213.008 171.433
threshold=0.43384745792380691 0.35252832877604273 0.44234320851073872 0.62066904684857682 -19261.499999999996 32801.5626923077 0.10611808760742032 0.2699965935862812 1.0000000180025095e-35
decision_type=2 2 2 2 2 2 2 2 2
left_child=1 4 8 5 -1 -3 -6 -7 -2
right_child=2 3 -4 -5 6 7 -8 -9 -10
leaf_value=0.056230469968753249 0.036554386651108432 0.014056398166778986 -0.059255815000048451 -0.017542640054418617 0.23150821964040241 0.11511593239572004 0.13426438683455985 0.032225825916404181 -0.02259856270175957
leaf_weight=395.43492996692657 728.4197321087122 1615.9045210257173 5483.4491131827235 2173.3575031086802 346.19676469266415 628.01505975425243 1070.51717479527 697.3358611240983 1481.583245575428
leaf_count=4921 9414 21634 76067 30537 3932 8337 13478 9295 19191
internal_value=0 0.0475507 -0.0431251 0.0157059 0.136891 0.0406057 0.158716 0.0722393 -0.00266021
internal_weight=0 6926.76 7693.45 5114.61 1812.15 2941.26 1416.71 1325.35 2210
internal_count=196806 92134 104672 69803 22331 39266 17410 17632 28605
is_linear=0
shrinkage=0.1


Tree=2
num_leaves=10
num_cat=0
split_feature=0 1 0 0 43 43 180 19 309
split_gain=2045.82 502.907 430.598 340.23 280.155 190.294 171.397 131.634 130.155
threshold=0.43878336512554278 -18805.499999999996 0.16966317299754158 0.65520205353839556 -722.93333333333328 -786.267857142857 2.5000000000000004 -4.4999999999999991 1.0000000180025095e-35
decision_type=2 2 2 2 2 2 2 2 2
left_child=1 -1 -3 4 7 -4 -6 -2 -7
right_child=3 2 5 -5 6 8 -8 -9 -10
leaf_value=4.6117568658370229e-05 -0.0037182675235605013 0.13005695860571306 0.020344274953152202 -0.050767897096895269 0.00080053911044411768 0.091361346356251941 0.069114377931053114 -0.043706101481298498 0.00717740036908328
leaf_weight=1352.7035973295569 1358.0579654574394 965.35394111275673 1203.2502103894949 3692.3068931996822 1903.5008066445589 1099.4025954455137 464.35748578608036 2335.8254951238632 251.37653019279242
leaf_count=17046 19179 10399 15600 53778 25579 12959 6035 33237 2994
internal_value=0 0.052594 0.0725139 -0.0267553 -0.0119679 0.0503822 0.0146095 -0.0292687 0.0764172
internal_weight=0 4872.09 3519.38 9754.05 6061.74 2554.03 2367.86 3693.88 1350.78
internal_count=196806 58998 41952 137808 84030 31553 31614 52416 15953
is_linear=0
shrinkage=0.1


Tree=3
num_leaves=10
num_cat=0
split_feature=4 18 4 4 4 4 4 69 32
split_gain=2283.95 616.606 284.515 422.578 272.199 384.262 225.248 166.525 102.546
threshold=0.41272265809433367 0.86325980056925189 1.0000000180025095e-35 0.23208206388391875 1.0000000180025095e-35 0.23726345151794789 0.56826400405960509 536.32860933487575 452250.00000000006
decision_type=2 2 2 2 2 2 2 2 2
left_child=1 2 8 -4 7 -6 -2 -3 -1
right_child=6 4 3 -5 5 -7 -8 -9 -10
leaf_value=0.063954041130162634 -0.01513293937963822 -0.024645556863103834 0.17965700105819438 0.066950630259556165 0.09625913456517142 0.010298908947441367 -0.051047841725781112 0.047615210935628594 0
leaf_weight=679.78674851357937 2875.3026943057775 1553.1356623321772 546.19686576724052 968.53553348779678 817.0428122729063 1514.8012396097183 4836.997576482594 395.58042887598276 429.20259822160006
leaf_count=8306 39946 20112 6542 12167 10077 19564 69497 5070 5525
internal_value=0 0.0413942 0.0796729 0.108236 0.0177038 0.0408365 -0.0377845 -0.00947629 0.0397804
internal_weight=0 6904.28 2623.72 1514.73 4280.56 2331.84 7712.3 1948.72 1108.99
internal_count=196806 87363 32540 18709 54823 29641 109443 25182 13831
is_linear=0
shrinkage=0.1


Tree=4
num_leaves=10
num_cat=0
split_feature=4 0 8 0 28 0 1 4 228
split_gain=1864.62 1074.37 357.728 304.474 263.713 214.19 160.158 148.147 100.608
threshold=0.46955788558464323 0.48697448570181462 0.39506601937500579 0.39736139529882392 0.45348934919860701 0.15968216777734864 -19508.499999999996 0.31314102321966769 1.0000000180025095e-35
decision_type=2 2 2 2 2 2 2 2 2
left_child=1 2 5 8 -3 -1 -7 -6 -2
right_child=3 4 -4 -5 7 6 -8 -9 -10
leaf_value=0.13606872104172316 0.030151272976753858 -0.017711734316190438 0.0090584230689613309 -0.053146208252415374 0.065235160668949382 0.013973444472767535 0.084753984810753719 0 -0.021189650777151663
leaf_weight=730.94994454830885 573.75114358216524 3075.462115675211 756.73995461314917 4817.2096215933561 742.67782082408667 434.28893856704235 1732.806106582284 630.50165531039238 1117.4871461614966
leaf_count=6687 7097 42872 8502 74413 9164 5317 19415 8642 14697
internal_value=0 0.0315567 0.0717339 -0.0403163 -0.00123152 0.0877631 0.0710197 0.0349682 -0.0031954
internal_weight=0 8103.43 3654.78 6508.45 4448.64 2898.04 2167.1 1373.18 1691.24
internal_count=196806 100599 39921 96207 60678 31419 24732 17806 21794
is_linear=0
shrinkage=0.1


Tree=5
num_leaves=10
num_cat=0
split_feature=4 0 8 0 28 8 28 18 4
split_gain=1529.08 838.591 285.23 254.009 212.013 207.763 206.528 138.683 132.48
threshold=0.47674953178598795 0.51697280399924528 0.39506601937500579 0.49732039689970392 0.39014453321651366 0.50550850739689557 0.41709285234670784 0.86326059039535352 0.27861050500291662
decision_type=2 2 2 2 2 2 2 2 2
left_child=1 2 4 -2 7 6 -3 -1 -6
right_child=3 5 -4 -5 8 -7 -8 -9 -10
leaf_value=0.082242187755293017 -0.012092226917885326 -0.010705031984081825 0.0059774463419273701 -0.05446864344610397 0.13875687053855787 -0.045374333682948347 0.042899114307813423 0.029149877851861728 0.068577705497445934
leaf_weight=897.72985656559467 2360.7936389818788 2079.5497869886458 875.8183346837759 3799.8330071046948 629.58234722912312 970.9247620627284 1086.4895008951426 1278.9862600266933 612.30078036338091
leaf_count=9078 32212 29596 9971 62152 5889 13530 13852 13986 6540
internal_value=0 0.0271507 0.0581221 -0.0383881 0.0711957 -0.0047637 0.00738214 0.0514946 0.104941
internal_weight=0 8431.38 4294.42 6160.63 3418.6 4136.96 3166.04 2176.72 1241.88
internal_count=196806 102442 45464 94364 35493 56978 43448 23064 12429
is_linear=0
shrinkage=0.1


Tree=6
num_leaves=10
num_cat=0
split_feature=4 0 0 4 4 94 8 47 1
split_gain=1265.44 556.443 323.442 237.074 254.016 184.465 126.224 116.419 110.681
threshold=0.41272265809433367 0.37683299036536083 0.26160099398574382 1.0000000180025095e-35 0.22195798551490056 0.43167701863354035 0.50028126407393914 -0.091085692870361293 -17352.499999999996
decision_type=2 2 2 2 2 2 2 2 2
left_child=1 5 -2 7 -5 -1 8 -3 -4
right_child=2 3 6 4 -6 -7 -8 -9 -10
leaf_value=0.045298251736900844 0.020935334956688537 0.044829827521582682 -0.049309613548515048 0.069865795857671095 0.0056756130524423095 0.10355570723104426 -0.065482137558315404 -0.026539175749771965 -0.017029591959159488
leaf_weight=1669.2861110344529 1009.2600076273084 252.79629879444838 1950.6595146581531 934.56740874797106 1925.5421223416924 891.95765157788992 1492.4464733079076 1811.2038185037673 2630.2877668514848
leaf_count=15492 12358 3351 31501 10485 24904 8022 24455 25109 41129
internal_value=0 0.0281079 -0.0308576 0.00821743 0.0269915 0.0659674 -0.0396251 -0.0173253 -0.0309881
internal_weight=0 7485.35 7082.65 4924.11 2860.11 2561.24 6073.39 2064 4580.95
internal_count=196806 87363 109443 63849 35389 23514 97085 28460 72630
is_linear=0
shrinkage=0.1


Tree=7
num_leaves=10
num_cat=0
split_feature=0 18 141 8 43 47 0 228 159
split_gain=922.055 355.575 206.256 185.058 171.131 155.361 119.344 103.173 91.5947
threshold=0.5496222807025376 0.86325980056925189 4501.1718750000009 0.5376397269085581 -858.96666666666658 -0.065270271539014726 0.19516996462102418 1.0000000180025095e-35 2.5000000000000004
decision_type=2 2 2 2 2 2 2 2 2
left_child=1 3 5 6 -3 -2 -1 -6 -7
right_child=2 4 -4 -5 7 8 -8 -9 -10
leaf_value=0.09212932458399048 0.002487815422891922 -0.016062117204374182 0.023469949976850896 -0.013879652783724142 0.047988472233919721 -0.045113093584253666 0.043786994403276464 0.0059853319065278614 0.00044088942734335685
leaf_weight=772.06215982884169 935.05151274055243 2106.4116530530155 677.29813231155276 393.08164202421904 977.89097019284964 4601.9735482558608 2019.6670522652566 1615.3720082193613 441.44390033558011
leaf_count=6770 13995 28356 10309 5006 10374 73724 23597 18048 6627
internal_value=0 0.0225566 -0.0279856 0.0483887 0.00484344 -0.0339781 0.0575057 0.0222005 -0.0409324
internal_weight=0 7884.49 6655.77 3184.81 4699.67 5978.47 2791.73 2593.26 5043.42
internal_count=196806 92151 104655 35373 56778 94346 30367 28422 80351
is_linear=0
shrinkage=0.1


Tree=8
num_leaves=10
num_cat=0
split_feature=0 8 1 8 47 141 159 28 71
split_gain=750.78 306.961 324.748 202.547 190.948 184.208 135.021 127.505 120.717
threshold=0.5496222807025376 0.42738942528730556 -19569.499999999996 0.47840365877532648 -0.053951038491066791 4501.1718750000009 1.0000000180025095e-35 0.52345228221805307 -760.49999999999989
decision_type=2 2 2 2 2 2 2 2 2
left_child=1 2 -1 5 8 7 -6 -2 -4
right_child=3 -3 4 -5 6 -7 -8 -9 -10
leaf_value=-0.012042185441793989 -0.031587322794660651 -0.019167027130495812 0.050872091596236763 -0.055486269656015143 0.017515581525485033 0.041782555939359645 0.056855970170302375 0.0081647810097637812 0.12645495823974193
leaf_weight=1418.6296867243946 3251.0555132962763 1583.1304295323789 613.67094095796347 1718.1128734089434 2611.3035795353353 500.46478404849768 1401.405165605247 1025.8397373966873 391.19698882475495
leaf_count=17939 53684 20473 6551 28828 28832 7345 14548 14798 3808
internal_value=0 0.0199085 0.0296715 -0.0258275 0.0416598 -0.0149569 0.031498 -0.0218244 0.0812676
internal_weight=0 8019.34 6436.21 6495.47 5017.58 4777.36 4012.71 4276.9 1004.87
internal_count=196806 92151 71678 104655 53739 75827 43380 68482 10359
is_linear=0
shrinkage=0.1


Tree=9
num_leaves=10
num_cat=0
split_feature=4 0 28 146 0 84 4 4 383
split_gain=979.304 384.761 230.263 151.087 133.862 122.15 102.753 116.219 101.621
threshold=0.50558277949122454 0.61602970598951612 0.50578075834142255 4.8660714285714297 0.4277789489764014 11626.650000000001 0.3178136513186039 1.0000000180025095e-35 75120.425048076941
decision_type=2 2 2 2 2 2 2 2 2
left_child=1 2 3 5 -2 8 7 -4 -1
right_child=4 -3 6 -5 -6 -7 -8 -9 -10
leaf_value=0.020132655621369906 -0.011148296420950965 -0.014326584720406611 -0.0033332655606460749 0.1144250591108095 -0.04615789144559497 -0.0085486146222967414 0.031466049897756226 0.090521110602410998 0.082739473214788833
leaf_weight=2845.9638190306723 1694.9946212098002 2486.1197519339621 128.14674490690231 163.50618594512343 3555.3495708182454 1409.3285851292312 854.42228046432137 1052.148917876184 301.16637001931667
leaf_count=31072 22167 38149 1223 1678 65041 15738 9535 9062 3141
internal_value=0 0.0190389 0.0314638 0.0190366 -0.0350414 0.0153995 0.0598117 0.0795046 0.0264339
internal_weight=0 9240.8 6754.68 4719.96 5250.34 4556.46 2034.72 1180.3 3147.13
internal_count=196806 109598 71449 51629 87208 49951 19820 10285 34213
is_linear=0
shrinkage=0.1


Tree=10
num_leaves=10
num_cat=0
split_feature=4 8 18 0 94 0 47 251 228
split_gain=807.006 354.155 251.632 139.996 132.537 132.235 125.633 107.502 87.8024
threshold=0.50197671872363325 0.47840365877532648 0.86326059039535352 0.70273933690868085 0.46770833333333339 0.57778497690557906 -0.12210741696401299 33132.213236842115 1.0000000180025095e-35
decision_type=2 2 2 2 2 2 2 2 2
left_child=1 2 4 6 -1 8 -4 -8 -2
right_child=5 -3 3 -5 -6 -7 7 -9 -10
leaf_value=0.031967852645524979 0.0058386302471293856 -0.023664659393025565 0.068433583205200987 -0.045141343161602142 0.076410857861870685 -0.050500845734949708 0.0031781864013217878 0.054229712354783056 -0.030290564050911718
leaf_weight=2006.7651949301362 986.74635028094053 1721.3442728407681 424.56095456704497 397.79241164773703 1119.1496748328209 2286.798864595592 3161.8503752537072 484.38162695989013 1872.9079136326909
leaf_count=21343 13990 23742 4473 6292 11070 45202 36614 5224 28856
internal_value=0 0.0169923 0.0263359 0.0108289 0.0481916 -0.0323437 0.0165379 0.0102277 -0.0174827
internal_weight=0 9315.84 7594.5 4468.59 3125.91 5146.45 4070.79 3646.23 2859.65
internal_count=196806 108758 85016 52603 32413 88048 46311 41838 42846
is_linear=0
shrinkage=0.1


Tree=11
num_leaves=10
num_cat=0
split_feature=4 0 309 1 8 0 96 159 84
split_gain=665.656 315.819 232.222 179.715 159.14 117.507 110.263 75.6813 72.3822
threshold=0.50558277949122454 0.26969722905571375 1.0000000180025095e-35 -19325.499999999996 0.424557949539838 0.25634707651116612 4140.1125000000011 1.0000000180025095e-35 10199.250000000002
decision_type=2 2 2 2 2 2 2 2 2
left_child=1 8 3 -3 6 -2 7 -5 -1
right_child=5 2 -4 4 -6 -7 -8 -9 -10
leaf_value=0.060242674659537046 0.0051301637852378679 -0.017085297972415783 -0.026621793348437391 0.037464982544273814 -0.012240931637195113 -0.036807748520881055 0.016708729526957029 0.086789449710267821 0.018733423675288352
leaf_weight=1544.1223534420133 747.2143047451973 1299.0238555893302 1768.2775044925511 1079.0213158875704 864.92060669884086 4202.3527875728905 1716.7212208285928 527.63776501268148 684.21942114084959
leaf_count=12245 9267 17510 23653 12596 12181 77941 20149 5653 5611
internal_value=0 0.0149582 0.00469584 0.0149657 0.0251394 -0.0302794 0.0351613 0.0542707 0.047935
internal_weight=0 9483.94 7255.6 5487.32 4188.3 4949.57 3323.38 1606.66 2228.34
internal_count=196806 109598 91742 68089 50579 87208 38398 18249 17856
is_linear=0
shrinkage=0.1


Tree=12
num_leaves=10
num_cat=0
split_feature=4 94 0 309 28 69 47 28 1
split_gain=560.147 277.627 219.431 160.122 113.78 112.358 89.9254 82.748 82.5467
threshold=0.55583709744822496 0.65450928381962881 0.34784586955737462 1.0000000180025095e-35 0.57894687945424361 445.68770639920427 -0.17569904422974716 0.50930953433175785 -16363.499999999998
decision_type=2 2 2 2 2 2 2 2 2
left_child=1 2 7 4 6 -2 -4 -1 -8
right_child=5 -3 3 -5 -6 -7 8 -9 -10
leaf_value=0.016294748341410367 -0.04084354933123114 0.051977022753533719 0.059778023999661846 -0.034085539422183564 0.031495846935977727 4.5543609045685474e-05 -0.027277306461131502 0.055030263100820979 0.0042794182614626849
leaf_weight=2042.3728401623666 3186.2385904714465 1470.8520030342042 196.62271437048912 1503.3478510975838 1103.6905027776957 791.4966283775866 1457.3973030000925 824.52823325991631 1824.159295681864
leaf_count=17754 58862 16043 2440 22063 13089 13991 21506 6633 24425
internal_value=0 0.0116432 0.0049073 -0.00570617 0.0033924 -0.0324621 -0.00524485 0.0277755 -0.00943817
internal_weight=0 10423 8952.12 6085.22 4581.87 3977.74 3478.18 2866.9 3281.56
internal_count=196806 123953 107910 83523 61460 72853 48371 24387 45931
is_linear=0
shrinkage=0.1


Tree=13
num_leaves=10
num_cat=0
split_feature=0 228 260 246 69 56 33 19 142
split_gain=402.228 275.639 170.92 154.796 125.267 113.071 106.97 88.4036 74.203
threshold=0.61913359745817487 1.0000000180025095e-35 11250.055125000001 1.0000000180025095e-35 421.53225000000003 188544.69000000003 14.683333333333335 -1.4999999999999998 -1064.4999999999998
decision_type=2 2 2 2 2 2 2 2 2
left_child=1 3 4 -1 5 -3 -7 8 -2
right_child=7 2 -4 -5 -6 6 -8 -9 -10
leaf_value=0.011583387930211551 -0.020694453119637746 0 0.043046287167154175 0.052815186368698801 0.016680694612231969 -0.055140372152986707 -0.010428257641688202 -0.041152664026636331 0.029640889217549052
leaf_weight=1998.2701032683253 1476.3224366232753 2092.610197942704 729.80374355986714 1797.8676203414798 1471.8894800506532 1088.2281629405916 1181.1265114545822 2180.948656860739 352.58361453562975
leaf_count=23286 26202 25759 8030 19407 17054 14778 15455 41151 5684
internal_value=0 0.00990095 -0.00236601 0.031368 -0.00821424 -0.0168384 -0.0322991 -0.0273957 -0.0104571
internal_weight=0 10359.8 6563.66 3796.14 5833.85 4361.96 2269.35 4009.85 1828.91
internal_count=196806 123769 81076 42693 73046 55992 30233 73037 31886
is_linear=0
shrinkage=0.1


Tree=14
num_leaves=10
num_cat=0
split_feature=8 18 1 1 309 84 9 3 32
split_gain=385.171 305.568 164.14 137.724 124.815 100.85 97.9516 78.6512 165.168
threshold=0.5376397269085581 0.86325980056925189 -18324.499999999996 -19982.499999999996 1.0000000180025095e-35 11876.850000000002 1.0000000180025095e-35 25404.750000000004 452250.00000000006
decision_type=2 2 2 2 2 2 2 2 2
left_child=1 3 -3 -1 6 7 -4 -5 -9
right_child=-2 2 4 5 -6 -7 -8 8 -10
leaf_value=-0.00889815084344058 -0.038154265832632019 -0.030085175885347062 0.0074521814334650195 0.028214235615527716 -0.024176780070236794 0.0080941566318418826 0.070490662369580612 0.10792172448065473 0.031470649029635908
leaf_weight=879.01475569605827 2283.0548959523439 2077.2394487522542 3614.1705448143184 1567.9916420802474 1245.9512419253588 1156.080623973161 271.31830007210374 514.71859205886722 740.7426119223237
leaf_count=12393 38896 32699 46020 17361 18016 14004 3099 5244 9074
internal_value=0 0.00663197 -0.00632331 0.0260547 0.00310552 0.0340204 0.0121052 0.0442904 0.0635915
internal_weight=0 12067.2 7208.68 4858.55 5131.44 3979.53 3885.49 2823.45 1255.46
internal_count=196806 157910 99834 58076 67135 45683 49119 31679 14318
is_linear=0
shrinkage=0.1


Tree=15
num_leaves=10
num_cat=0
split_feature=4 4 4 0 256 231 11 159 246
split_gain=454.832 325.018 216.564 160.909 113.407 111.699 89.6091 76.1457 73.3945
threshold=0.34496990492100627 1.0000000180025095e-35 0.14509547980217227 0.24680396311147623 1.0000000180025095e-35 1.0000000180025095e-35 -262.49999999999994 1.5000000000000002 1.0000000180025095e-35
decision_type=2 2 2 2 2 2 2 2 2
left_child=1 5 -3 -2 -5 6 -1 -8 -6
right_child=3 2 -4 4 8 -7 7 -9 -10
leaf_value=-0.039050221392600448 0.015406631340391283 0.085363169108010228 0.025313680253039192 -0.033879856743378782 -0.020727975846258042 0.081604999111462115 -0.0063966138491899681 0.043130332776723193 0.016308526319872698
leaf_weight=727.38715696334839 1208.1768386550248 806.10469311475754 2719.1877829171717 4091.8053140155971 1284.0261408723891 143.70311206951737 2089.5407629795372 363.77333787083626 895.42051259428263
leaf_count=9106 12924 6964 27360 74247 21946 1408 24602 3897 14352
internal_value=0 0.0181418 0.0393215 -0.0175217 -0.024021 -0.0040243 -0.00819975 0.000549478 -0.00506396
internal_weight=0 6849.7 3525.29 7479.43 6271.25 3324.4 3180.7 2453.31 2179.45
internal_count=196806 73337 34324 123469 110545 39013 37605 28499 36298
is_linear=0
shrinkage=0.1


Tree=16
num_leaves=10
num_cat=0
split_feature=4 8 227 96 69 277 69 71 6
split_gain=382.384 224.595 183.582 153.097 131.998 86.5126 79.1154 77.7293 60.6866
threshold=0.57179952324457861 0.57187609579089183 67.140000000000015 9446.6250000000018 421.53225000000003 1.0000000180025095e-35 437.84129370629381 -760.49999999999989 -1463.4999999999998
decision_type=2 2 2 2 2 2 2 2 2
left_child=1 2 3 4 5 -1 -2 -6 -7
right_child=6 -3 -4 -5 7 8 -8 -9 -10
leaf_value=-0.0046919501630900522 -0.036709886775394378 -0.02955673783291304 0.071816352978981271 -0.009599735854975493 0.022961341738169817 0.004237712144841115 0 0.069634475444975349 0.035362769867820637
leaf_weight=2030.4152374826372 2792.360740814358 1316.0916749052703 531.00511147081852 2553.3842068314552 897.80959843471646 1183.8673489801586 739.20933693647385 708.84174637496471 1548.0942145772278
leaf_count=24946 55553 20789 5057 30734 9659 13853 13232 6851 16132
internal_value=0 0.00890563 0.0143635 0.0108349 0.0191805 0.0105483 -0.0290089 0.0441604 0.0222322
internal_weight=0 10769.5 9453.42 8922.41 6369.03 4762.38 3531.57 1606.65 2731.96
internal_count=196806 128021 107232 102175 71441 54931 68785 16510 29985
is_linear=0
shrinkage=0.1


Tree=17
num_leaves=10
num_cat=0
split_feature=4 4 4 0 228 146 56 159 13
split_gain=321.958 249.269 152.553 135.404 101.401 100.032 94.9363 66.1937 60.8138
threshold=0.34496990492100627 1.0000000180025095e-35 0.14509547980217227 0.61913359745817487 1.0000000180025095e-35 4.8660714285714297 148427.55000000002 1.0000000180025095e-35 334.50000000000006
decision_type=2 2 2 2 2 2 2 2 2
left_child=1 5 -3 4 -2 6 7 -1 -4
right_child=3 2 8 -5 -6 -7 -8 -9 -10
leaf_value=0.0026020280843549893 0.012603388417604037 0.070276704828052414 0.012804204968879948 -0.035634825945075069 -0.016685681984600031 0.082031031452681175 -0.021662389323404974 0.069545308281203325 0.049970408926381014
leaf_weight=1002.4046696834266 1839.713462267071 861.19381007179618 2190.6876362301409 2248.2999019213021 3203.4929947853088 126.17343398183584 2024.7225347347558 181.2323082126677 598.13849386945367
leaf_count=11798 24620 6964 21413 48957 49892 1164 24275 1776 5947
internal_value=0 0.0148994 0.0329895 -0.0151387 -0.00580785 -0.00460966 -0.00832104 0.0136763 0.0211253
internal_weight=0 6984.55 3650.02 7291.51 5043.21 3334.53 3208.36 1183.64 2788.83
internal_count=196806 73337 34324 123469 74512 39013 37849 13574 27360
is_linear=0
shrinkage=0.1


Tree=18
num_leaves=10
num_cat=0
split_feature=4 309 94 1 8 228 79 13 459
split_gain=283.147 195.648 176.842 114.521 127.666 98.5986 70.8218 68.105 55.6806
threshold=0.57179952324457861 1.0000000180025095e-35 0.56385869565217395 -16491.499999999996 0.27160475966146508 1.0000000180025095e-35 225.24750000000003 353.50000000000006 1.5000000000000002
decision_type=2 2 2 2 2 2 2 2 2
left_child=1 2 3 5 8 -1 -2 -7 -5
right_child=6 -3 -4 4 -6 7 -8 -9 -10
leaf_value=0.019617609246345657 -0.036246108221807787 -0.018146114044591832 0.042609890549235759 0.047116588276629949 -0.0076888835887876849 -0.034917104060736552 -0.0048611532808963027 0.007262263484840022 0.017101966894834102
leaf_weight=776.02248981967568 2212.727123439312 2311.9332096278667 1786.5291658341885 1121.0650765895844 1340.0375612825155 1289.3595792278647 1179.6861327253282 494.92222594469786 1734.8647321201861
leaf_count=9520 46460 31256 18084 10701 16527 17614 22325 6701 17618
internal_value=0 0.00747426 0.0145221 0.00695056 0.0172039 -0.0094721 -0.0256198 -0.0226706 0.0292255
internal_weight=0 10854.7 8542.8 6756.27 4195.97 2560.3 3392.41 1784.28 2855.93
internal_count=196806 128021 96765 78681 44846 33835 68785 24315 28319
is_linear=0
shrinkage=0.1


Tree=19
num_leaves=10
num_cat=0
split_feature=18 4 94 0 84 244 31 8 146
split_gain=268.113 153.929 109.587 92.4146 84.8969 69.8409 74.1239 65.5507 58.3151
threshold=0.87320872582119591 0.44985477748110575 0.31009615384615391 0.70428102636673084 16724.250000000004 1.0000000180025095e-35 275.50000000000006 0.64325461525972016 0.88194444444444453
decision_type=2 2 2 2 2 2 2 2 2
left_child=2 3 7 4 -2 6 -4 8 -1
right_child=1 -3 5 -5 -6 -7 -8 -9 -10
leaf_value=0.0015380003980859556 0.010648945006948241 -0.029321255722727525 0.035626263059802092 -0.045050547973558681 -0.021629800601608101 0.0560770635661373 -0.0010327174162596277 -0.045989283536282483 0.048385619014638614
leaf_weight=2558.4194011129439 3511.894787222147 3196.470702983439 1228.997806571424 437.63398480042815 1051.1340496391058 772.047686483711 909.86511851474643 253.74334389343858 303.91987507790327
leaf_count=33377 37946 63377 13931 7588 12393 8287 11552 4831 3524
internal_value=0 -0.0121693 0.0156107 -0.00101057 0.00299943 0.0295918 0.0195755 0.00223702 0.00685309
internal_weight=0 8197.13 6026.99 5000.66 4563.03 2910.91 2138.86 3116.08 2862.34
internal_count=196806 121304 75502 57927 50339 33770 25483 41732 36901
is_linear=0
shrinkage=0.1


Tree=20
num_leaves=10
num_cat=0
split_feature=18 159 19 142 90 86 56 13 180
split_gain=227.841 160.088 112.868 124.762 88.1385 87.004 70.4909 88.5493 69.7659
threshold=0.82562907726721524 1.0000000180025095e-35 -2.4999999999999996 -1064.4999999999998 18136.642500000005 17.500000000000004 139777.67250000002 463.50000000000006 2.5000000000000004
decision_type=2 2 2 2 2 2 2 2 2
left_child=6 2 3 -2 -4 -3 -1 -8 -7
right_child=1 5 4 -5 -6 8 7 -9 -10
leaf_value=0.042769256682683957 -0.012775682019883654 0.033020894794001936 -0.012867671627601593 0.037511520423329482 -0.042108873420649146 -0.013494015238813132 0 0.045735968932157901 0.019415111837722876
leaf_weight=1137.1912150532007 1942.2300685755908 1072.9291998744011 2420.1810485161841 661.36100863292813 1984.8010816834867 1648.6809642985463 1716.6649580746889 564.52433466166258 1055.0107656046748
leaf_count=12618 29270 12913 36478 7680 33259 23515 20726 7023 13324
internal_value=0 -0.00751582 -0.0165084 0 -0.0262647 0.00891403 0.0221069 0.0113789 -0.000291648
internal_weight=0 10785.2 7008.57 2603.59 4404.98 3776.62 3418.38 2281.19 2703.69
internal_count=196806 156439 106687 36950 69737 49752 40367 27749 36839
is_linear=0
shrinkage=0.1


Tree=21
num_leaves=10
num_cat=0
split_feature=8 277 6 239 32 3 28 66 146
split_gain=243.077 198.441 167.284 106.142 101.774 114.098 76.7051 66.0926 65.4844
threshold=0.64325461525972016 1.0000000180025095e-35 -3057.4999999999995 1.0000000180025095e-35 675490.50000000012 16319.250000000002 0.41045448987942518 6649.4340178571438 0.51470588235294124
decision_type=2 2 2 2 2 2 2 2 2
left_child=1 6 -3 -4 5 -5 8 -7 -1
right_child=-2 2 3 4 -6 7 -8 -9 -10
leaf_value=-0.023526861498040647 -0.041538055391537793 -0.014128842716387974 -0.0025741238120473406 0.0067500956630370812 0 0.077916660866194892 0.0058144042210609989 0.038246007258136538 0.016557565218977357
leaf_weight=3296.8645616993308 1302.185792978853 1537.967468932271 1233.067324154079 975.85878324508667 860.08850763738155 627.34970117732882 1889.6306489706039 2029.7105291858315 435.67866168543696
leaf_count=51322 25346 22439 15486 10945 12190 6720 23583 23064 5711
internal_value=0 0.00379143 0.0147639 0.0226946 0.0298465 0.0371733 -0.0102118 0.0479797 -0.0185866
internal_weight=0 12886.2 7264.04 5726.07 4493.01 3632.92 5622.17 2657.06 3732.54
internal_count=196806 171460 90844 68405 52919 40729 80616 29784 57033
is_linear=0
shrinkage=0.1


Tree=22
num_leaves=10
num_cat=0
split_feature=0 141 3 56 13 19 9 83 13
split_gain=228.729 180.566 148.99 148.284 125.943 118.057 78.7491 66.7053 57.6459
threshold=0.65793865202047452 7299.8437500000009 16553.250000000004 204615.40500000006 282.50000000000006 -1.0000000180025095e-35 -0.0012761938182989498 -349.77499999999992 497.50000000000006
decision_type=2 2 2 2 2 2 2 2 2
left_child=1 2 -1 5 6 -4 -5 -3 -2
right_child=8 7 3 4 -6 -7 -8 -9 -10
leaf_value=-0.017834747505468204 -0.033614945955194944 0.018655882281099007 0.05039098079244865 -0.040132499752896317 0.020546842122503791 0.010294688531180872 -0.0036822776575336207 0.070363864147124117 0.0066702093279434301
leaf_weight=2878.2624578848481 2196.3310644291341 602.35278966650367 1172.6305889394134 913.07938434928656 1420.8216367643327 2191.9714478701353 1891.4631657693535 526.7899006344378 377.48094946146011
leaf_count=36090 44715 6871 12555 12456 18662 27865 24925 5144 7523
internal_value=0 0.00562084 0.00142634 0.00885907 -0.0034117 0.024559 -0.0158973 0.0436438 -0.0273276
internal_weight=0 11597.4 10468.2 7589.97 4225.36 3364.6 2804.54 1129.14 2573.81
internal_count=196806 144568 132553 96463 56043 40420 37381 12015 52238
is_linear=0
shrinkage=0.1


Tree=23
num_leaves=10
num_cat=0
split_feature=8 28 47 180 364 76 132 45 177
split_gain=203.534 172.385 114.937 91.3373 89.7527 86.9037 81.0329 71.5412 62.2706
threshold=0.66796015774562723 0.43386682996813786 -0.053951038491066791 5.5000000000000009 32858.737148093853 96316.672500000015 -1621.4999999999998 2250002.2500000005 35.500000000000007
decision_type=2 2 2 2 2 2 2 2 2
left_child=1 2 6 7 5 -4 -1 -3 -7
right_child=-2 3 4 -5 -6 8 -8 -9 -10
leaf_value=0 -0.041797471815675259 0.019919539095128176 0.0032003180621235439 0.071583437307300393 0.016710411777296923 -0.031504317868269648 0.044265896788347719 -0.020256037961150192 -0.0042512636586963309
leaf_weight=1119.7204398270696 1092.7267544940114 3603.9379225429147 1652.7746816985309 319.53341455757618 969.84728493355215 2927.1970674693584 687.6446443721652 481.8501176442951 1298.4686314109713
leaf_count=14550 22302 40891 23620 3124 12353 46582 7177 6603 19604
internal_value=0 0.00312306 -0.00498355 0.0192725 -0.0109908 -0.015727 0.0172386 0.0149427 -0.0233608
internal_weight=0 13061 8655.65 4405.32 6848.29 5878.44 1807.37 4085.79 4225.67
internal_count=196806 174504 123886 50618 102159 89806 21727 47494 66186
is_linear=0
shrinkage=0.1


Tree=24
num_leaves=10
num_cat=0
split_feature=8 1 6 341 256 33 31 177 230
split_gain=180.958 195.161 124.848 106.046 105.175 87.6191 65.3498 56.0781 53.9205
threshold=0.424557949539838 -18324.499999999996 -1780.4999999999998 1.0000000180025095e-35 1.0000000180025095e-35 16.683333333333337 133.50000000000003 35.500000000000007 1.0000000180025095e-35
decision_type=2 2 2 2 2 2 2 2 2
left_child=1 4 7 -4 8 -2 -5 -3 -1
right_child=5 2 3 6 -6 -7 -8 -9 -10
leaf_value=-0.036151115521341252 -0.033889457520174214 -0.011397616084967616 -4.076538113178521e-05 0.049581574348713582 0.012051870760463197 0.0025775162158973783 0.021050639118443282 0.019422390760772693 0
leaf_weight=1693.1032180264592 2041.8385336343199 2097.119194958359 1361.7430996000767 1389.9733987934887 926.42145391739905 902.3339913263917 2389.1368595026433 811.25490719825029 521.99521387554705
leaf_count=28614 37570 28395 16594 13796 13255 15566 25655 9927 7434
internal_value=0 0.00547673 0.0137912 0.0231779 -0.0155162 -0.0223816 0.0318026 -0.0024653 -0.0274864
internal_weight=0 11190.7 8049.23 5140.85 3141.52 2944.17 3779.11 2908.37 2215.1
internal_count=196806 143670 94367 56045 49303 53136 39451 38322 36048
is_linear=0
shrinkage=0.1


Tree=25
num_leaves=10
num_cat=0
split_feature=0 13 47 8 1 341 142 228 9
split_gain=187.494 133.065 124.347 89.722 90.6192 63.434 57.6973 56.7756 55.3857
threshold=0.26969722905571375 581.50000000000011 -0.065270271539014726 0.41129878270471276 -16420.499999999996 1.0000000180025095e-35 -1127.4999999999998 1.0000000180025095e-35 -6.6596719760325489e-06
decision_type=2 2 2 2 2 2 2 2 2
left_child=8 2 6 4 7 -6 -2 -4 -1
right_child=1 -3 3 -5 5 -7 -8 -9 -10
leaf_value=0.010786838881527962 -0.00079313419903102801 0.022550713457681577 -0.002768996494355894 -0.036456754689194314 -0.021490328069778346 0.0078967384167782494 0.03465527161432861 -0.037993181448082412 0.039274162804798923
leaf_weight=2192.7219471037388 1202.5283550694585 1343.6598911173642 759.83660636842251 1793.5173004884273 1030.0766949821264 2548.4184518121183 695.43387804552913 1450.6522683091462 1097.9992832653224
leaf_count=19315 16738 20680 11963 36494 15501 32439 7567 26956 9153
internal_value=0 -0.00666527 -0.0109089 -0.0166922 -0.0104003 -0.000289744 0.0116815 -0.0263265 0.0205886
internal_weight=0 10824.1 9480.46 7582.5 5788.98 3578.5 1897.96 2210.49 3290.72
internal_count=196806 168338 147658 123353 86859 47940 24305 38919 28468
is_linear=0
shrinkage=0.1


Tree=26
num_leaves=10
num_cat=0
split_feature=4 239 228 71 66 246 33 56 33
split_gain=161.841 137.074 114.288 92.5842 72.885 61.7663 56.6678 55.4619 47.4304
threshold=0.63720984947910253 1.0000000180025095e-35 1.0000000180025095e-35 45.500000000000007 8184.6617565789484 1.0000000180025095e-35 16.976190476190478 171237.66750000001 18.050000000000004
decision_type=2 2 2 2 2 2 2 2 2
left_child=1 -1 5 4 -4 8 -6 -7 -3
right_child=-2 2 3 -5 6 7 -8 -9 -10
leaf_value=-0.01355523665587962 -0.025211389313936225 0.00072023786645145375 0.01405720046511477 0.033277089386059659 -0.021561797554832313 0.062924023893170727 0.0059346116889352502 0.022661045520989572 0.044023707635073281
leaf_weight=3121.3521689530462 2200.8204617779702 1200.5621142536402 1606.7254057582468 817.07833538390696 2117.5311737246811 668.361178714782 1087.1328201834112 936.1453862786293 338.28762658685446
leaf_count=42114 48663 13999 19377 9529 29143 6355 13977 9873 3776
internal_value=0 0.00430409 0.0107704 0.00205129 -0.00304875 0.0260722 -0.0119296 0.0400408 0.0108737
internal_weight=0 11893.2 8771.82 5628.47 4811.39 3143.36 3204.66 1604.51 1538.85
internal_count=196806 148143 106029 72026 62497 34003 43120 16228 17775
is_linear=0
shrinkage=0.1


Tree=27
num_leaves=10
num_cat=0
split_feature=141 9 18 240 28 83 56 13 159
split_gain=158.147 128.015 119.569 73.7137 61.2005 56.2606 54.6402 63.0429 45.8763
threshold=7299.8437500000009 7.641962184236022e-07 0.87321005215240877 1.0000000180025095e-35 0.57894687945424361 -349.77499999999992 146417.44500000004 282.50000000000006 1.5000000000000002
decision_type=2 2 2 2 2 2 2 2 2
left_child=1 2 6 4 8 -2 -1 -8 -4
right_child=5 -3 3 -5 -6 -7 7 -9 -10
leaf_value=0.017937329449353369 0.011004734651189445 0.030631527322602742 -0.029894428436144718 0.012568033864149154 0 0.053014284158123905 -0.013924170284678895 0.014908838942082687 -0.0019068107377608161
leaf_weight=1907.1626433543861 752.88979695923626 984.62125751748681 3714.9468935038894 763.80686840973794 1248.3286494985223 665.05625553056598 2077.5448186546564 1174.797820661217 785.27804517187178
leaf_count=22669 9413 11407 64309 11307 15950 6769 28487 15234 11261
internal_value=0 -0.00381602 -0.00680556 -0.0158476 -0.0197929 0.0313965 0.00441829 -0.00320925 -0.0252275
internal_weight=0 12656.5 11671.9 6512.36 5748.55 1417.95 5159.51 3252.34 4500.22
internal_count=196806 180624 169217 102827 91520 16182 66390 43721 75570
is_linear=0
shrinkage=0.1


Tree=28
num_leaves=10
num_cat=0
split_feature=6 277 8 180 391 19 132 81 251
split_gain=152.184 136.283 117.902 78.4836 66.1737 54.6053 56.3385 54.1956 45.3795
threshold=-3960.4999999999995 1.0000000180025095e-35 0.27160475966146508 5.5000000000000009 1.0000000180025095e-35 -5.4999999999999991 -2021.4999999999998 0.10888640010628817 33132.213236842115
decision_type=2 2 2 2 2 2 2 2 2
left_child=-1 3 4 5 7 6 -2 -3 -4
right_child=1 2 8 -5 -6 -7 -8 -9 -10
leaf_value=-0.028038670206578582 -0.0074089196372163716 0.027990997939848695 -0.013153126360418661 0.044005463309275392 0.074485546854597739 -0.018072622352930678 0.032123829352830292 0.0047328622961062914 0.025626872572158739
leaf_weight=1727.3763666506857 1277.0763311162591 2690.7637256924063 1746.625515576452 269.63591783493757 240.83287699520588 3483.2215773593634 494.19331807643175 1776.0688095130026 352.68903996795416
leaf_count=28721 18901 29146 26892 3237 1881 56151 5734 21673 4470
internal_value=0 0.00364978 0.0131744 -0.00791007 0.0220094 -0.0107598 0.00307011 0.0189617 -0.00617326
internal_weight=0 12331.1 6806.98 5524.13 4707.67 5254.49 1771.27 4466.83 2099.31
internal_count=196806 168085 84062 84023 52700 80786 24635 50819 31362
is_linear=0
shrinkage=0.1


Tree=29
num_leaves=10
num_cat=0
split_feature=0 3 32 32 13 83 3 66 66
split_gain=156.16 125.628 174.011 123.894 72.2422 70.2082 65.045 53.0788 50.7135
threshold=0.68806750055721666 16553.250000000004 452250.00000000006 302598.00000000006 609.50000000000011 40.083333333333336 21030.750000000004 8951.0898437500018 9086.6861451863388
decision_type=2 2 2 2 2 2 2 2 2
left_child=1 5 3 7 -4 -1 -5 -3 -8
right_child=-2 2 4 6 -6 -7 8 -9 -10
leaf_value=-0.019716051439135671 -0.029173878884545135 0.027453151139422434 -0.0068718708620179904 0.0035817902241051846 0.029006415430648309 0.019131002930526466 0.070847757984032034 -0.0096218041756462609 0.034067412055372663
leaf_weight=2738.5368110127747 1644.8204808328301 606.77620962448418 4513.1325614284724 449.00461753830314 636.2806740347296 535.84287210926414 711.03189966268837 1021.2113887816668 1184.327491234988
leaf_count=35936 36071 6402 65097 5811 8650 6422 6917 12620 12880
internal_value=0 0.00361517 0.00970822 0.0254543 -0.00224915 -0.0130609 0.0402163 0.00359731 0.0483801
internal_weight=0 12396.1 9121.76 3972.35 5149.41 3274.38 2344.36 1627.99 1895.36
internal_count=196806 160735 118377 44630 73747 42358 25608 19022 19797
is_linear=0
shrinkage=0.1


Tree=30
num_leaves=10
num_cat=0
split_feature=159 84 4 19 333 248 466 341 86
split_gain=129.819 95.9219 79.1988 67.771 55.0279 46.9403 55.9745 43.548 44.1181
threshold=1.0000000180025095e-35 8550.4500000000025 0.28298015816786154 -2.4999999999999996 1.0000000180025095e-35 3.5000000000000004 1.0000000180025095e-35 1.0000000180025095e-35 19.500000000000004
decision_type=2 2 2 2 2 2 2 2 2
left_child=1 3 5 4 -1 6 -2 -5 -9
right_child=2 -3 -4 7 -6 -7 -8 8 -10
leaf_value=-0.016185161845276835 0.036082774991622338 -0.022315656778530688 0.00062351773417252732 -0.025520764141824467 0.022856295489946429 0.050067642046218719 0 0.0054141312346384059 -0.024402346222855548
leaf_weight=432.05454038269818 796.73731495067477 2945.8893859069794 2807.9205279424787 1050.435689650476 1650.6919063236564 627.652651976794 950.73597586527467 2119.0056904070079 642.96890992671251
leaf_count=6680 6751 48496 42691 18081 19671 5124 9631 29211 10470
internal_value=0 -0.00757881 0.012351 -4.91039e-05 0.0142889 0.0258047 0.0165317 -0.00813798 -0.0011737
internal_weight=0 8841.05 5183.05 5895.16 2082.75 2375.13 1747.47 3812.41 2761.97
internal_count=196806 132609 64197 84113 26351 21506 16382 57762 39681
is_linear=0
shrinkage=0.1


Tree=31
num_leaves=10
num_cat=0
split_feature=309 141 31 177 1 177 56 228 285
split_gain=132.859 121.281 121.42 70.8192 67.7832 62.2411 56.5243 51.4397 47.7576
threshold=1.0000000180025095e-35 12813.358608385372 199.50000000000003 13.500000000000002 -14797.499999999998 35.500000000000007 342105.50250000012 1.0000000180025095e-35 1.0000000180025095e-35
decision_type=2 2 2 2 2 2 2 2 2
left_child=1 2 3 4 7 6 -4 -1 -7
right_child=-2 -3 5 -5 -6 8 -8 -9 -10
leaf_value=0.011047052856365838 -0.019439592212129559 0.040698110302962963 -0.0040833669328042745 0.029634361425639202 0.017551742139011461 0.02106751391691096 -0.031233025451751356 -0.025952306365857089 -0.0091970307393030755
leaf_weight=583.87808583490551 2856.6144420485944 866.82066580653191 1685.8310068044811 1690.3400211296976 1764.2842979636043 958.52401387691498 1569.1386910211295 935.4408955629915 1096.4466173127294
leaf_count=7963 47927 9107 23569 20110 19152 11697 25009 15899 16373
internal_value=0 0.00472854 0.00160182 0.0129087 0.00400156 -0.0088059 -0.0174713 -0.0110912 0.00444484
internal_weight=0 11150.7 10283.9 4973.94 3283.6 5309.94 3254.97 1519.32 2054.97
internal_count=196806 148879 139772 63124 43014 76648 48578 23862 28070
is_linear=0
shrinkage=0.1


Tree=32
num_leaves=10
num_cat=0
split_feature=0 19 142 4 365 83 76 33 0
split_gain=124.537 97.8449 98.6049 69.5762 45.7882 45.0517 43.8106 40.7369 37.8534
threshold=0.26969722905571375 -4.4999999999999991 -1140.4999999999998 0.55583709744822496 0.054250000000000007 46.366666666666674 202665.03750000003 21.514705882352946 0.056159389019998902
decision_type=2 2 2 2 2 2 2 2 2
left_child=4 2 7 5 8 6 -3 -2 -1
right_child=1 3 -4 -5 -6 -7 -8 -9 -10
leaf_value=0.050116642770434622 -0.0073999689207325569 -0.0012356068615974509 0.036150492569020386 -0.030474729848291561 -0.0027432146809328352 0.013140923229889226 -0.022612759348715299 0.02115825008519049 0.016791296635007918
leaf_weight=469.00139089673758 2480.0643054656684 2191.2233052756637 888.72449528053403 1714.8835905063897 827.14379824325442 893.89329908974469 1861.2715136446059 619.71567823551595 2047.6451833806932
leaf_count=3265 38479 29287 9563 44144 7421 11127 26938 8800 17782
internal_value=0 -0.00548579 0.00674126 -0.0129533 0.0166333 -0.00668152 -0.0112947 -0.00137579 0.0233895
internal_weight=0 10649.8 3988.5 6661.27 3343.79 4946.39 4052.49 3099.78 2516.65
internal_count=196806 168338 56842 111496 28468 67352 56225 47279 21047
is_linear=0
shrinkage=0.1


Tree=33
num_leaves=10
num_cat=0
split_feature=0 3 32 17 180 21 384 19 302
split_gain=118.966 105.722 133.67 110.649 58.7416 53.1593 48.6658 42.4248 42.1227
threshold=0.7058725510917957 16553.250000000004 452250.00000000006 358908.75000000006 5.5000000000000009 0.5262485970819305 1.0000000180025095e-35 -8.4999999999999982 1.0000000180025095e-35
decision_type=2 2 2 2 2 2 2 2 2
left_child=1 5 3 7 8 -1 -5 -3 -4
right_child=-2 2 4 6 -6 -7 -8 -9 -10
leaf_value=0.0089751642459428224 -0.030914855002329655 0.026632195083482958 0.024644768614589165 -0.027045855681188131 0.040339770630317788 -0.019881527939783913 0.038501296708030333 -0.0075724827301560651 -0.0079979689235895792
leaf_weight=801.2330188844353 1156.1523449197412 504.65530185773969 421.20357470400631 101.37828760221601 299.5136411767453 2528.2345826346427 2314.9547059070319 1247.1680786013603 4598.7408381514251
leaf_count=10053 26843 5519 5321 1679 3519 34260 23969 15718 69925
internal_value=0 0.00257399 0.0080173 0.0214501 -0.00232477 -0.0126442 0.0353475 0.00172408 -0.00506469
internal_weight=0 12817.1 9487.61 4168.16 5319.46 3329.47 2416.33 1751.82 5019.94
internal_count=196806 169963 125650 46885 78765 44313 25648 21237 75246
is_linear=0
shrinkage=0.1


Tree=34
num_leaves=10
num_cat=0
split_feature=8 13 56 227 3 19 488 77 47
split_gain=114.665 97.7058 100.534 75.0043 70.985 59.9426 58.1492 51.54 48.0115
threshold=0.66796015774562723 541.50000000000011 118669.16250000002 40.747500000000009 16553.250000000004 -2.4999999999999996 1.0000000180025095e-35 65251.687500000007 0.066852316203396919
decision_type=2 2 2 2 2 2 2 2 2
left_child=1 2 5 4 -4 -1 7 -6 -3
right_child=-2 8 3 -5 6 -7 -8 -9 -10
leaf_value=0.035188124864365088 -0.033328040495382148 0.03277755883720037 -0.029871872655305866 0.026765661289999788 -0.018928951608392995 0.0047807189446574874 0.016342543752283761 0.0025978598320698597 -0.0061482831887254251
leaf_weight=888.80831789970398 971.60902576893568 1394.8692258968949 1527.8694568965584 566.43603233806789 2686.8783467710018 2791.661569243297 996.01752034574747 1775.4002901874483 358.59550639614463
leaf_count=8871 22302 17619 22289 5521 41673 37384 12263 23848 5036
internal_value=0 0.00228231 -0.00106161 -0.00774542 -0.0106832 0.012389 -0.00513325 -0.0101455 0.0242605
internal_weight=0 12986.5 11233.1 7552.6 6986.17 3680.47 5458.3 4462.28 1753.46
internal_count=196806 174504 151849 105594 100073 46255 77784 65521 22655
is_linear=0
shrinkage=0.1


Tree=35
num_leaves=10
num_cat=0
split_feature=6 239 228 84 246 13 1 1 28
split_gain=112.796 104.928 81.1732 63.1884 48.6522 48.0317 42.7616 37.0219 34.9308
threshold=-3960.4999999999995 1.0000000180025095e-35 1.0000000180025095e-35 4764.5775000000003 1.0000000180025095e-35 396.50000000000006 -9868.4999999999982 -17796.499999999996 0.50229154246414542
decision_type=2 2 2 2 2 2 2 2 2
left_child=8 -2 4 5 -3 7 -6 -4 -1
right_child=1 2 3 -5 6 -7 -8 -9 -10
leaf_value=-0.033407473257226768 -0.011951842312273862 0.0079727339727307233 -0.016030232909948983 -0.0098089936071631204 0.039806741205490159 0.036526659984961192 -0.00088664668566556029 0.012129787889870874 0
leaf_weight=1216.5907742585987 3317.0108990576118 1624.3668528310955 613.13756268471479 2634.1386133302003 1456.6100003756583 614.96842945925891 257.56378114409745 1769.4755612555891 440.36894159577787
leaf_count=22344 50959 20176 10470 40022 15866 7519 2107 20966 6377
internal_value=0 0.00312065 0.0088029 0.0012933 0.0211785 0.011375 0.0331232 0.00447365 -0.0246705
internal_weight=0 12287.3 8970.26 5631.72 3338.54 2997.58 1714.17 2382.61 1656.96
internal_count=196806 168085 117126 78977 38149 38955 17973 31436 28721
is_linear=0
shrinkage=0.1


Tree=36
num_leaves=10
num_cat=0
split_feature=28 6 188 71 9 56 164 162 162
split_gain=106.921 94.6439 75.9971 118.678 51.7033 38.8253 38.7041 41.3378 35.2851
threshold=0.66654445593382283 -3574.4999999999995 1.0000000180025095e-35 -1014.4999999999999 -0.00038932918790389996 213409.71000000005 0.98085000000000011 7.5000000000000009 5.5000000000000009
decision_type=2 2 2 2 2 2 2 2 2
left_child=1 -1 5 4 -4 -3 7 -2 -7
right_child=6 2 3 -5 -6 8 -8 -9 -10
leaf_value=-0.026429832371609441 0.019319963794894764 -0.0020578668166269637 -0.019085775113794619 0.027236963307034269 0.0058660635171380662 -0.02863417131364477 -0.0016670729051542765 0.067769334829134928 0.0050509112274677347
leaf_weight=1657.2755791787058 1687.6762544028461 2552.0714240912348 1335.4480518400669 1936.5127738788724 2118.0398371070623 1453.3778557274491 633.59117270633578 223.13741456344724 336.26108041405678
leaf_count=29788 18463 36289 21069 22083 30611 24613 7675 1942 4273
internal_value=0 -0.00432786 -0.000463721 0.00736201 -0.00350019 -0.0104037 0.0183428 0.0254883 -0.0217598
internal_weight=0 11389 9731.71 5390 3453.49 4341.71 2544.4 1910.81 1789.64
internal_count=196806 168726 138938 73763 51680 65175 28080 20405 28886
is_linear=0
shrinkage=0.1


Tree=37
num_leaves=10
num_cat=0
split_feature=309 162 31 159 143 304 47 240 76
split_gain=97.7118 93.3501 82.5136 56.8266 50.6214 43.4843 41.8172 39.4628 38.8477
threshold=1.0000000180025095e-35 6.5000000000000009 203.50000000000003 1.0000000180025095e-35 2572.1550000000007 8.2500000000000018 -0.023020262535978445 1.0000000180025095e-35 58039.312500000007
decision_type=2 2 2 2 2 2 2 2 2
left_child=1 2 3 7 6 -3 -4 -1 -8
right_child=-2 5 4 -5 -6 -7 8 -9 -10
leaf_value=-0.00084243967735260755 -0.016968430013134125 0.050218615361263312 0.00127819085909245 0.026940808717871519 0.011413682361092456 0.010616510538964169 0.04152379187448911 0.03086387767426978 -0.022857918389722662
leaf_weight=3139.8523409981281 2776.3102956749499 581.16282869130373 1185.2735419645905 1400.5886427313089 971.43191035650671 681.33317945711315 86.747414967045188 441.23367283865809 2655.7269070576876
leaf_count=42835 47927 5246 15486 14740 13275 7900 1083 5459 42855
internal_value=0 0.00399588 0.000623191 0.00977704 -0.00848565 0.0296193 -0.0136557 0.00279172 -0.0204657
internal_weight=0 11143.4 9880.85 4981.67 4899.18 1262.5 3927.75 3581.09 2742.47
internal_count=196806 148879 135733 63034 72699 13146 59424 48294 43938
is_linear=0
shrinkage=0.1


Tree=38
num_leaves=10
num_cat=0
split_feature=482 71 146 125 11 56 146 28 63
split_gain=92.8667 71.2132 69.3974 58.5819 53.9542 55.7023 45.8994 37.592 35.8469
threshold=0.15625000000000003 54.500000000000007 0.5590277777777779 1157.5815 -77.499999999999986 176056.29000000004 4.2678571428571432 0.43386682996813786 -183.49999999999997
decision_type=2 2 2 2 2 2 2 2 2
left_child=1 2 3 4 7 -6 -2 -1 -5
right_child=6 -3 -4 8 5 -7 -8 -9 -10
leaf_value=-0.021839190899980335 -0.013123953057422102 0.027689934305459959 0.026297163400235614 0.039045199125485985 0.026489204955427698 -0.0082091364793303607 0.035586746755804768 -0.00037333120096140775 0.002042022347504504
leaf_weight=2108.5178370568901 4806.4206878710538 1297.2506958022714 1032.1417020447552 497.52932130545378 856.0354154445231 947.40464516915381 191.61424473300576 1484.9681985285133 681.36621943488717
leaf_count=37258 75911 15251 11912 6362 9012 11750 2158 18438 8754
internal_value=0 0.00596863 0.00213665 -0.00150722 -0.0060553 0.00772007 -0.0110613 -0.0132402 0.0184861
internal_weight=0 8905.21 7607.96 6575.82 5396.93 1803.44 4998.03 3593.49 1178.9
internal_count=196806 118737 103486 91574 76458 20762 78069 55696 15116
is_linear=0
shrinkage=0.1


Tree=39
num_leaves=10
num_cat=0
split_feature=210 256 248 246 1 309 0 69 43
split_gain=90.5638 80.2041 69.6606 65.6464 47.2215 57.3641 39.0887 37.8571 34.0556
threshold=2.5000000000000004 1.0000000180025095e-35 4.5000000000000009 1.0000000180025095e-35 -16975.499999999996 1.0000000180025095e-35 0.076919368882821665 134.87971178571431 -696.46428571428567
decision_type=2 2 2 2 2 2 2 2 2
left_child=1 2 4 -3 -1 -6 -2 -8 -4
right_child=6 3 8 -5 5 -7 7 -9 -10
leaf_value=-0.025173429524199899 0.054017268966242364 -0.0046601831149775431 0.0022059402577193493 0.019314049706562995 0 -0.028841168037313347 0.0016780153061421218 0.030762504763354039 0.051510923785999599
leaf_weight=2411.2672430407256 277.91095248237252 2355.6843018848449 532.10716598108411 2133.8735133968294 2971.0215277876705 908.24405001476407 1350.7656514197588 733.97164867073298 216.37547584436834
leaf_count=46762 1932 32931 7463 24960 38310 16418 18060 8058 1912
internal_value=0 -0.0037931 -0.0105078 0.00651738 -0.0140267 -0.00684668 0.0176957 0.0123858 0.0177628
internal_weight=0 11528.6 7039.02 4489.56 6290.53 3879.27 2362.65 2084.74 748.483
internal_count=196806 168756 110865 57891 101490 54728 28050 26118 9375
is_linear=0
shrinkage=0.1


Tree=40
num_leaves=10
num_cat=0
split_feature=13 56 3 32 3 9 0 9 141
split_gain=86.6919 105.071 75.5503 108.136 79.8875 53.8075 49.3319 48.497 41.8476
threshold=334.50000000000006 342105.50250000012 16814.250000000004 675490.50000000012 29252.250000000004 -0.00036986397526574995 0.16966317299754158 -0.0059239938263097487 7038.8736263736273
decision_type=2 2 2 2 2 2 2 2 2
left_child=1 2 -1 4 6 8 -4 -3 -2
right_child=5 7 3 -5 -6 -7 -8 -9 -10
leaf_value=-0.013411453423542 -0.0014422752691771084 -0.03819501418184585 0.037830203348407393 -0.015120124526464499 0.039214076705668982 0.032227829513073188 0.000928458461859609 -0.010846602182275566 0.041474267599974898
leaf_weight=2082.9767695236951 1625.4194968007505 946.14769928716123 448.31007181107998 1332.4804434813559 1204.0402738619596 1132.8466647360474 2212.4176508057863 2631.5745089817792 258.16023018956184
leaf_count=28718 23999 15611 3039 23050 14851 14273 30015 40442 2808
internal_value=0 -0.00428586 0.00249252 0.00905431 0.0176415 0.0148758 0.00751278 -0.0183517 0.00392182
internal_weight=0 10857.9 7280.23 5197.25 3864.77 3016.43 2660.73 3577.72 1883.58
internal_count=196806 155726 99673 70955 47905 41080 33054 56053 26807
is_linear=0
shrinkage=0.1


Tree=41
num_leaves=10
num_cat=0
split_feature=18 3 32 235 196 33 227 1 341
split_gain=80.4636 73.3243 65.1817 56.0574 46.7308 48.4971 40.5916 38.8393 40.4861
threshold=0.88339134965077681 24594.750000000004 452250.00000000006 1.0000000180025095e-35 1.0000000180025095e-35 12.292857142857146 4624.8975000000009 -14488.499999999998 1.0000000180025095e-35
decision_type=2 2 2 2 2 2 2 2 2
left_child=1 6 -3 4 5 7 -1 -2 -9
right_child=3 2 -4 -5 -6 -7 -8 8 -10
leaf_value=-0.0059572779139109621 -0.024975421446233423 0.037652895747727157 0.0075613700486470495 0.019716486548339601 -0.028057310678437836 0.0063428658919189723 0.037546597249473693 -0.023630437667216841 0.0069996759986521015
leaf_weight=3006.4311720933765 1559.961213639006 1162.0938940308988 2187.7015139460564 669.22723856940866 1231.0856999531388 1931.4783702939749 227.67587666772306 645.73842074535787 1241.8208861928433
leaf_count=37613 30204 10700 31546 9397 20871 28836 1985 10770 14884
internal_value=0 0.00788471 0.0182918 -0.00736977 -0.0102597 -0.00600496 -0.002593 -0.0132058 -0.00296208
internal_weight=0 6583.9 3349.8 7279.31 6610.08 5379 3234.11 3447.52 1887.56
internal_count=196806 81844 42246 114962 105565 84694 39598 55858 25654
is_linear=0
shrinkage=0.1


Tree=42
num_leaves=10
num_cat=0
split_feature=0 419 230 9 56 175 33 277 0
split_gain=81.5739 71.9244 67.9536 70.8763 57.4951 57.1299 39.2965 35.2811 34.7487
threshold=0.7058725510917957 1707.7500000000002 1.0000000180025095e-35 -1.4348840978997291e-05 104244.57000000002 3.2500000000000004 11.207142857142857 1.0000000180025095e-35 0.33538873629150573
decision_type=2 2 2 2 2 2 2 2 2
left_child=1 2 3 4 -1 -4 -6 -8 -5
right_child=-2 -3 5 8 6 -7 7 -9 -10
leaf_value=0.007347076923436645 -0.026353059924895714 0.12425944558453297 0.021660713598621557 0.022059217974217196 -0.029721161281475551 -0.0050294034820851617 -0.020695181794110892 0.0012559186458285729 0.00054096877819518924
leaf_weight=1366.1682289969176 1091.0910076070577 48.252720793709159 2509.2105873022228 1180.7091878447682 1415.4460351839662 1101.1733595822006 1291.6347603090107 1514.3197970017791 2331.6467363219708
leaf_count=16425 26843 378 26705 10558 22677 14132 21372 20404 37312
internal_value=0 0.00213245 0.00159205 -0.00292599 -0.0100016 0.0132499 -0.0158472 -0.00850089 0.00805229
internal_weight=0 12758.6 12710.3 9099.92 5587.57 3610.38 4221.4 2805.95 3512.36
internal_count=196806 169963 169585 128748 80878 40837 64453 41776 47870
is_linear=0
shrinkage=0.1


Tree=43
num_leaves=10
num_cat=0
split_feature=8 210 200 49 125 146 76 177 68
split_gain=74.8125 65.3517 65.7919 63.0819 46.8998 43.9958 41.4258 47.2129 42.7366
threshold=0.66796015774562723 2.5000000000000004 3.5000000000000004 -139.49999999999997 3312.9037500000009 0.86607142857142871 159779.92500000002 35.500000000000007 1.0000000180025095e-35
decision_type=2 2 2 2 2 2 2 2 2
left_child=1 2 3 4 5 -1 8 -8 -5
right_child=-2 -3 -4 6 -6 -7 7 -9 -10
leaf_value=-0.0039122000782716637 -0.027873804017729133 0.017323252859086757 0.0201933509760913 0.011154706003460637 0.030421248667184167 0.029324633001271156 -0.027988492709714874 -0.0037585995394957199 -0.022920319993786353
leaf_weight=3087.3248126674443 906.1821654997766 2260.5738383643329 1238.2364595700055 1230.3737127445638 609.23701339773834 456.70705755986273 2007.8277981821448 1513.7280873972923 522.72593592479825
leaf_count=45985 22302 25406 14365 15880 7576 5059 31996 20856 7381
internal_value=0 0.00184662 -0.00134201 -0.00427389 0.00477896 9.56237e-05 -0.0115871 -0.0178504 0.000437946
internal_weight=0 12926.7 10666.2 9427.92 4153.27 3544.03 5274.66 3521.56 1753.1
internal_count=196806 174504 149098 134733 58620 51044 76113 52852 23261
is_linear=0
shrinkage=0.1


Tree=44
num_leaves=10
num_cat=0
split_feature=6 180 6 8 4 13 0 47 1
split_gain=73.8524 76.234 71.1835 81.7254 43.8398 43.4093 40.9342 38.677 36.4622
threshold=-3057.4999999999995 3.5000000000000004 -1.0000000180025095e-35 0.2748256141309694 0.12256758096950672 360.50000000000006 0.72481841172796002 -0.18518359330712142 -9777.4999999999982
decision_type=2 2 2 2 2 2 2 2 2
left_child=5 2 3 6 -3 -1 7 -2 -9
right_child=1 4 -4 -5 -6 -7 -8 8 -10
leaf_value=-0.023214868724925713 0.045082361168979346 0.058861608171610395 -0.019292833588062275 -0.011694306691939658 0.014433829395569864 0.0069570517710980306 -0.031814391302254427 0.013808875059983187 -0.0080768782533454965
leaf_weight=1893.723315326497 351.81957410648465 288.65663145855069 1633.9662767779082 2370.4410586133599 1556.7615033537149 577.63487107120454 208.01335167512298 4064.6718510109931 876.77263916097581
leaf_count=34098 2810 2133 30780 38733 19270 8784 4624 47590 7984
internal_value=0 0.00330635 -0.000203053 0.00363555 0.0219118 -0.015768 0.0104184 0.0122623 0.00972819
internal_weight=0 11351.1 9505.68 7871.72 1845.42 2471.36 5501.28 5293.26 4941.44
internal_count=196806 153924 132521 101741 21403 42882 63008 58384 55574
is_linear=0
shrinkage=0.1


Tree=45
num_leaves=10
num_cat=0
split_feature=28 235 6 239 45 96 17 237 248
split_gain=72.1056 65.907 55.9802 53.6323 45.7224 40.0234 32.7036 35.114 29.9781
threshold=0.66654445593382283 1.0000000180025095e-35 -3574.4999999999995 1.0000000180025095e-35 5356820.2500000009 8892.8775000000005 179932.50000000003 1.0000000180025095e-35 5.5000000000000009
decision_type=2 2 2 2 2 2 2 2 2
left_child=1 2 -1 -4 -2 6 -5 -8 -9
right_child=4 -3 3 5 -6 -7 7 8 -10
leaf_value=-0.024422718911411186 0.018496720349196014 0.02022618355427765 -0.015867792646759988 -0.01889033476417688 -0.03737824709453294 -0.0098146239419265521 0.028503577957351086 0.0022370138782828362 0.047453326211243346
leaf_weight=1444.1992820482701 2433.1416903994977 1037.5253403708339 2361.0275727640837 410.56285046041012 145.14603336714208 2007.4204732310027 840.48283436708152 2968.4450586456805 159.21199570409954
leaf_count=27637 25950 13885 39486 5366 2130 31203 9945 39582 1622
internal_value=0 -0.00356938 -0.00608761 -0.00294885 0.0149728 0.00167467 0.00716476 0.0101064 0.00485067
internal_weight=0 11228.9 10191.4 8747.15 2578.29 6386.12 4378.7 3968.14 3127.66
internal_count=196806 168726 154841 127204 28080 87718 56515 51149 41204
is_linear=0
shrinkage=0.1


Tree=46
num_leaves=10
num_cat=0
split_feature=188 71 51 18 33 0 19 228 73
split_gain=67.4955 115.192 49.1126 36.1708 35.2208 34.3858 30.5608 29.8565 28.9239
threshold=1.0000000180025095e-35 -760.49999999999989 -182.49999999999997 0.91320869150585404 21.607692307692314 0.12660746710944168 -1.0000000180025095e-35 1.0000000180025095e-35 8903.3387708333339
decision_type=2 2 2 2 2 2 2 2 2
left_child=3 2 4 7 5 -2 -3 -1 -7
right_child=1 6 -4 -5 -6 8 -8 -9 -10
leaf_value=0.0098436016362735135 0.031345216234345767 0.035278268905229893 -0.018682018150633587 -0.017381691584519427 0.026469061196270613 0.0079676860814661861 0.01120116226566651 -0.0088035441115104814 -0.011591138653750015
leaf_weight=1387.7999293450266 308.15602508932352 1265.4940962474793 1340.0995084848255 2465.343120993115 566.69716991297901 1207.6457643695176 1169.0533533021808 2196.8887332119048 1888.9513912592083
leaf_count=16505 2330 12120 20395 42125 7415 17738 13690 33294 31194
internal_value=0 0.00607286 -0.00201415 -0.00802166 0.00336448 -0.000194563 0.0241174 -0.00131219 -0.0036483
internal_weight=0 7746.1 5311.55 6050.03 3971.45 3404.75 2434.55 3584.69 3096.6
internal_count=196806 104882 79072 91924 58677 51262 25810 49799 48932
is_linear=0
shrinkage=0.1


Tree=47
num_leaves=10
num_cat=0
split_feature=225 162 13 56 220 79 244 3 159
split_gain=64.1981 57.0545 51.1749 70.9876 48.4072 37.9221 34.7089 32.8424 30.6748
threshold=0.054450000000000005 14.500000000000002 231.50000000000003 342105.50250000012 1.0000000180025095e-35 -40671.179999999993 1.0000000180025095e-35 16814.250000000004 1.5000000000000002
decision_type=2 2 2 2 2 2 2 2 2
left_child=1 2 3 4 7 -4 -7 -1 -6
right_child=-2 -3 5 -5 8 6 -8 -9 -10
leaf_value=-0.00021424434853930353 -0.010637999044669982 0.037875212219543042 -0.011504361590322074 -0.018949673432730629 -0.0080542061401625096 0.01174836615955902 0.04243055596915473 0.026098999586425715 0.022415329243073528
leaf_weight=647.35617387853563 4069.0895640272647 485.59121152758598 428.66061750054359 1831.7796082552522 2497.9486539922655 1656.2238223366439 543.51082202233374 1252.4953026007861 369.77407598681748
leaf_count=8405 65490 4659 6478 28895 35678 22234 6327 14990 3650
internal_value=0 0.00432271 0.00245135 -0.00212018 0.00414134 0.0143007 0.0197729 0.0166195 -0.00378514
internal_weight=0 9713.34 9227.75 6599.35 4767.57 2628.4 2199.73 1899.85 2867.72
internal_count=196806 131316 126657 91618 62723 35039 28561 23395 39328
is_linear=0
shrinkage=0.1


Tree=48
num_leaves=10
num_cat=0
split_feature=7 28 159 248 228 21 364 17 1
split_gain=61.967 58.9034 46.6071 39.7479 38.2177 35.4209 33.3472 32.6691 29.182
threshold=2.1052715789473688 0.39370203683663402 1.5000000000000002 3.5000000000000004 1.0000000180025095e-35 0.50013227513227532 66413.318803088812 855087.75000000012 -14797.499999999998
decision_type=2 2 2 2 2 2 2 2 2
left_child=5 2 4 -3 7 -1 -7 -2 -6
right_child=1 3 -4 -5 8 6 -8 -9 -10
leaf_value=0.0070041210617302592 0.013109601396011784 0.0072822413870097151 0.0160858822862005 0.031396060731090483 -0.021262001767297384 -0.020605374567634647 0.0093874340126537184 -0.015548311157700823 -0.0013348570868256051
leaf_weight=772.5437414702028 1407.0458447644487 2754.8024670667946 1162.4434847645462 992.9699298646301 1798.6922259414569 2536.6284457249567 385.91992458701134 531.75368005223572 1430.3048690967262
leaf_count=10209 17758 34167 14967 10717 37302 37413 4180 9388 20705
internal_value=0 0.0039651 -0.00178132 0.0139315 -0.00598916 -0.0111724 -0.016311 0.00474639 -0.0127373
internal_weight=0 10078 6330.24 3747.77 5167.8 3695.09 2922.55 1938.8 3229
internal_count=196806 145004 100120 44884 85153 51802 41593 27146 58007
is_linear=0
shrinkage=0.1


Tree=49
num_leaves=10
num_cat=0
split_feature=19 180 125 71 167 220 11 22 188
split_gain=61.1074 61.5704 54.4061 53.7737 48.7476 45.5035 30.9124 30.4935 30.2262
threshold=-4.4999999999999991 6.5000000000000009 3237.0375000000004 45.500000000000007 -31595.499999999996 1.0000000180025095e-35 -75.499999999999986 -137684.94739239346 1.0000000180025095e-35
decision_type=2 2 2 2 2 2 2 2 2
left_child=4 2 3 5 -1 6 -2 -6 -5
right_child=1 -3 -4 8 7 -7 -8 -9 -10
leaf_value=0 -0.011327975554170524 0.046668277661157415 0.016630901619552902 -0.0013635608856777683 0.0087524991636694673 -0.020948185683143751 0.012407333581806358 0.033672165696050811 0.029500096782492664
leaf_weight=2996.6338888239115 1539.6418397957459 217.08064104616642 856.32859305292368 983.97952776961029 1345.9593516569585 3624.9276013644412 829.25549739040434 933.7512784358114 434.57479771971703
leaf_count=42958 25896 2372 12138 13880 14921 60844 10042 9197 4558
internal_value=0 -0.00533668 -0.00681997 -0.0096608 0.00836722 -0.0138622 -0.00260734 0.0193874 0.00740376
internal_weight=0 8485.79 8268.71 7412.38 5276.34 5993.82 2368.9 2279.71 1418.55
internal_count=196806 129730 127358 115220 67076 96782 35938 24118 18438
is_linear=0
shrinkage=0.1


Tree=50
num_leaves=10
num_cat=0
split_feature=256 220 13 28 66 33 79 246 11
split_gain=58.1924 57.978 53.4443 48.3912 39.6012 34.6858 29.1226 28.7219 27.8863
threshold=1.0000000180025095e-35 1.0000000180025095e-35 541.50000000000011 0.51642978250047589 5855.0138009510874 19.723809523809525 -22497.299999999999 1.0000000180025095e-35 -217.49999999999997
decision_type=2 2 2 2 2 2 2 2 2
left_child=2 -2 3 4 -1 7 -4 -3 -5
right_child=1 5 6 8 -6 -7 -8 -9 -10
leaf_value=0.0016971031764155338 0.022380758843227461 -0.013718427244054433 -0.011168762421877788 -0.010134963072392381 -0.019194904615130959 0.019497690752076705 0.020958839847980269 0.0063758158570129319 0.013376167826338518
leaf_weight=1080.5749664222822 1850.6690235994756 1575.9094280423597 342.87880380451679 814.57410271279514 3824.0288591971621 757.7738589849323 1045.331553267315 1222.0060525853187 1236.4584872107953
leaf_count=16446 19930 23402 5362 11527 68800 8971 13840 14931 13597
internal_value=0 0.00801689 -0.00530086 -0.00895806 -0.0143931 0.00026637 0.0123207 -0.00459344 0.00356296
internal_weight=0 5406.36 8343.85 6955.64 4904.6 3555.69 1388.21 2797.92 2051.03
internal_count=196806 67234 129572 110370 85246 47304 19202 38333 25124
is_linear=0
shrinkage=0.1


Tree=51
num_leaves=10
num_cat=0
split_feature=0 3 32 48 3 33 2 1 71
split_gain=54.9052 58.2501 74.757 54.6496 40.0797 39.3392 37.2836 33.9561 30.5117
threshold=0.71938156100281259 21030.750000000004 675490.50000000012 12860.601750000002 28127.250000000004 22.516666666666669 -4255.4999999999991 -9920.4999999999982 63.500000000000007
decision_type=2 2 2 2 2 2 2 2 2
left_child=1 6 3 4 -3 -5 -1 -6 -8
right_child=-2 2 -4 5 7 -7 8 -9 -10
leaf_value=-0.022633722873953564 -0.025740192868523599 0.011799316186645443 -0.0067170815560796448 -0.0060745793288441282 0.043008198204000841 0.022740845735204056 -0.0060704654964767379 0 0.017493754204416786
leaf_weight=1159.8870423072949 784.60738341510296 1724.1846076920629 2610.1163589870557 1649.7643228545785 1106.8589917169884 655.85114736296237 3207.0818538395688 187.55404484830797 653.11441027931869
leaf_count=18209 20699 20541 43677 21973 13375 7047 42478 1579 7228
internal_value=0 0.00150146 0.00689685 0.0137541 0.0226386 0.00169904 -0.00683168 0.036323 -0.00183084
internal_weight=0 12954.4 7934.33 5324.21 3018.6 2305.62 5020.08 1294.41 3860.2
internal_count=196806 176107 108192 64515 35495 29020 67915 14954 49706
is_linear=0
shrinkage=0.1


Tree=52
num_leaves=10
num_cat=0
split_feature=240 18 146 196 237 13 31 9 2
split_gain=54.5822 57.7961 47.1698 47.2623 43.8736 39.767 29.9867 28.2053 27.4908
threshold=1.0000000180025095e-35 0.72148547409939512 0.51470588235294124 1.0000000180025095e-35 1.0000000180025095e-35 282.50000000000006 133.50000000000003 -0.00036986397526574995 -4213.4999999999991
decision_type=2 2 2 2 2 2 2 2 2
left_child=1 -1 3 4 -3 8 -2 -7 -6
right_child=6 2 -4 -5 5 7 -8 -9 -10
leaf_value=0.021231883899043444 0.034412666953768344 0.0095684184874700942 0.012640551269789661 -0.022394829022706762 -0.026110980241628043 -0.0038219819312693658 0.0056962737264619496 0.02433110664825789 -0.0076275590358379679
leaf_weight=932.59328042343259 620.24380570463836 1842.5968073988333 1354.4859867207706 1691.6737264487892 1161.3362822532654 892.52634474821389 1140.1646038526669 548.49187513627112 3546.8212612643838
leaf_count=10349 7163 25086 16245 28039 21575 13230 15343 6900 52876
internal_value=0 -0.00248938 -0.00458198 -0.00709176 -0.00373037 -0.00787401 0.0163681 0.00621682 -0.012394
internal_weight=0 11970.5 11037.9 9683.45 7991.77 6149.18 1760.41 1441.02 4708.16
internal_count=196806 174300 163951 147706 119667 94581 22506 20130 74451
is_linear=0
shrinkage=0.1


Tree=53
num_leaves=10
num_cat=0
split_feature=97 17 159 11 246 56 56 79 33
split_gain=54.4471 47.4072 47.7376 43.868 31.5546 28.9856 27.9529 25.1472 24.6449
threshold=7251.1500000000005 157707.00000000003 1.0000000180025095e-35 -69.499999999999986 1.0000000180025095e-35 114996.26250000001 210413.74500000002 12026.137500000001 17.150375939849628
decision_type=2 2 2 2 2 2 2 2 2
left_child=1 -1 4 -4 7 -6 -5 -3 -8
right_child=-2 2 3 6 5 -7 8 -9 -10
leaf_value=-0.020480667295852725 -0.011986965238372531 -0.017534819736838039 0.0070361332025071707 0.056519644200777132 0.01496710029103528 -0.001755799525442987 0 0.007423144968411087 0.038337814790377046
leaf_weight=764.29847154952586 2992.7566089564934 1463.8599310256541 2788.1921535795555 346.88767337985337 1659.7674362799153 2537.2749602301046 359.52512270398438 493.87569546699524 315.51561784371734
leaf_count=11127 49420 23917 34585 2769 21853 39661 3941 6413 3120
internal_value=0 0.00326605 0.00518531 0.0139855 -0.000103952 0.004625 0.0319913 -0.0107403 0.0179414
internal_weight=0 10729.2 9964.9 3810.12 6154.78 4197.04 1021.93 1957.74 675.041
internal_count=196806 147386 136259 44415 91844 61514 9830 30330 7061
is_linear=0
shrinkage=0.1


Tree=54
num_leaves=10
num_cat=0
split_feature=210 125 227 220 69 256 28 54 5
split_gain=50.5723 46.8458 56.4043 49.4523 42.19 30.9374 26.8034 24.4112 23.5566
threshold=2.5000000000000004 975.20437500000014 55.282500000000006 1.0000000180025095e-35 692.79822443181831 1.0000000180025095e-35 0.26261425582484582 -682.89444444444428 -9511.4999999999982
decision_type=2 2 2 2 2 2 2 2 2
left_child=1 2 3 5 6 -1 -5 -3 -2
right_child=8 7 -4 4 -6 -7 -8 -9 -10
leaf_value=-0.0059633746870298389 -0.019217559722938562 -0.0038017235416541954 0.024836339923896188 -0.026622652525071139 0.0029689239612286527 0.014261309861039599 -0.0095400008256450574 0.017027908427515222 0.016185008861913815
leaf_weight=2035.7949197562411 180.81530928611755 779.6835835436359 535.09572808165103 2215.4677374046296 1035.5800479371101 1187.4037948865443 1972.6034308029339 1546.8500811923295 2222.9245811942965
leaf_count=34476 2675 13076 5255 42130 13175 13560 28988 18096 25375
internal_value=0 -0.00285547 -0.0061976 -0.00827906 -0.0143053 0.00118456 -0.0188096 0.00962799 0.0131161
internal_weight=0 11308.5 8981.95 8446.85 5223.65 3223.2 4188.07 2326.53 2403.74
internal_count=196806 168756 137584 132329 84293 48036 71118 31172 28050
is_linear=0
shrinkage=0.1


Tree=55
num_leaves=10
num_cat=0
split_feature=7 32 3 11 3 32 17 140 18
split_gain=49.7074 60.5591 70.3269 37.7439 37.0036 43.0621 30.0285 26.2387 26.6994
threshold=2.2500028125070317 452250.00000000006 20724.750000000004 -63.499999999999993 29108.250000000004 675490.50000000012 640269.00000000012 39.500000000000007 0.8938131995100721
decision_type=2 2 2 2 2 2 2 2 2
left_child=3 2 -2 -1 -3 6 -6 8 -7
right_child=1 4 -4 -5 5 7 -8 -9 -10
leaf_value=-0.015245409115316529 -0.00014299969465186282 -0.01367908315987814 0.025577218862643442 0.0056922720898673444 -0.0031361828132555458 0.0028093208112742042 0.029821781038049958 0.024161293616528821 -0.019388303473274835
leaf_weight=2982.6473975107074 1952.3145142989233 2024.5351732000709 2153.8653080714867 1129.4695517839864 343.76991032715887 949.5419262945652 809.36408905219287 267.83282832801342 1087.8371802633628
leaf_count=45072 26556 31208 22183 13130 5203 15494 11108 4153 22699
internal_value=0 0.00388435 0.0131107 -0.00925722 -0.00284743 0.00321136 0.0191503 -0.00433855 -0.008564
internal_weight=0 9589.06 4106.18 4112.12 5482.88 3458.35 1153.13 2305.21 2037.38
internal_count=196806 138604 48739 58202 89865 58657 16311 42346 38193
is_linear=0
shrinkage=0.1


Tree=56
num_leaves=10
num_cat=0
split_feature=291 313 6 143 19 71 8 16 28
split_gain=48.8053 46.5771 44.1621 39.0913 28.3299 25.254 24.4814 22.4481 21.8066
threshold=1.0000000180025095e-35 1.0000000180025095e-35 -2441.4999999999995 2572.1550000000007 -1.4999999999999998 -644.49999999999989 0.29643928606236614 -1.4999999999999998 0.67115743118017412
decision_type=2 2 2 2 2 2 2 2 2
left_child=1 2 8 4 5 -4 -2 -6 -1
right_child=6 -3 3 -5 7 -7 -8 -9 -10
leaf_value=-0.021957421240984248 0.016612878256955298 0.017426675121504042 -0.0050705316166849701 0.012580450311231443 -0.015234848376974343 0.014516658039589984 -0.00430339117048174 0.0067006905972517841 0.0020757977428166692
leaf_weight=1902.7060966966674 2223.5982787655666 978.85795536637306 1726.09103574045 1537.4363803956658 2753.7755604889244 1036.3481503091753 657.64771094173193 494.04399713221937 381.2916444465518
leaf_count=35692 24901 11934 25618 19687 45146 10818 10466 7361 5183
internal_value=0 -0.00314609 -0.00529359 -0.00146507 -0.00522027 0.00192456 0.0115001 -0.0115977 -0.0175181
internal_weight=0 10810.6 9831.69 7547.7 6010.26 2762.44 2881.25 3247.82 2284
internal_count=196806 161439 149505 108630 88943 36436 35367 52507 40875
is_linear=0
shrinkage=0.1


Tree=57
num_leaves=10
num_cat=0
split_feature=482 162 49 21 32 159 69 304 68
split_gain=48.1099 43.528 48.9662 46.927 44.5063 38.2499 27.1958 26.2844 24.3666
threshold=0.19790000000000005 7.5000000000000009 -139.49999999999997 0.74994739057239068 168750.00000000003 1.0000000180025095e-35 -583.24729166666646 4.2500000000000009 1.0000000180025095e-35
decision_type=2 2 2 2 2 2 2 2 2
left_child=1 2 4 6 -1 -6 -4 -3 -8
right_child=-2 7 3 -5 5 -7 8 -9 -10
leaf_value=-0.023371099321052653 -0.013784297256951628 0.049566486303415695 -0.021524344573618338 -0.016471277896344252 0.0039934520970790156 0.024820810801346127 0.01129039647600073 0.011293841876306389 -0.0078835444335429525
leaf_weight=387.10541970655322 2150.0206058677286 264.78706238977611 430.14978709258139 2380.747009864077 2694.882025511004 1426.3807897008955 2105.4271003613248 933.78984645288438 907.95445683132857
leaf_count=5767 37101 2253 7029 35904 40955 16442 28583 9906 12866
internal_value=0 0.00250884 0.00032015 -0.00563762 0.0082333 0.0114386 0.00156909 0.020563 0.00518937
internal_weight=0 11531.2 10332.6 5824.28 4508.37 4121.26 3443.53 1198.58 3013.38
internal_count=196806 159705 147546 84382 63164 57397 48478 12159 41449
is_linear=0
shrinkage=0.1


Tree=58
num_leaves=10
num_cat=0
split_feature=13 9 56 251 220 32 228 6 61
split_gain=45.3466 55.0104 59.2721 42.4204 39.8553 31.4313 28.1813 26.5643 24.0475
threshold=609.50000000000011 -0.0014801437878281499 106048.98 34328.397692307699 1.0000000180025095e-35 171234.00000000003 1.0000000180025095e-35 -4385.4999999999991 20283.345000000005
decision_type=2 2 2 2 2 2 2 2 2
left_child=1 2 -1 -4 6 -6 -3 -7 -2
right_child=8 4 3 -5 5 7 -8 -9 -10
leaf_value=0.011693947810724897 0.0082626752839991373 0.022968317408541918 -0.025528742067885336 0.0017438082757033045 -0.03171975887252397 -0.022981111807477351 0.0029793228957878514 0.0015783174300106708 0.039409844753957965
leaf_weight=760.87344587687403 1398.6227597910911 1234.3971955133602 2273.7436610637233 674.44437599554658 360.81949507351965 488.81196518149227 1965.7834858102724 4169.7268485715613 346.16431189142168
leaf_count=9239 18679 12877 39046 8041 5537 9734 30203 59346 4104
internal_value=0 -0.00225792 -0.0124077 -0.0189588 0.00220345 -0.00320706 0.0109945 -0.000789228 0.0150014
internal_weight=0 11928.6 3709.06 2948.19 8219.54 5019.36 3200.18 4658.54 1744.79
internal_count=196806 174023 56326 47087 117697 74617 43080 69080 22783
is_linear=0
shrinkage=0.1


Tree=59
num_leaves=10
num_cat=0
split_feature=0 275 9 11 25 0 0 11 25
split_gain=45.6436 43.2027 43.0638 34.8893 26.9738 25.7323 23.6048 23.1537 24.165
threshold=0.067086134615082962 1.0000000180025095e-35 -3.8475907705476796e-05 -226.49999999999997 1154.5000000000002 0.7058725510917957 1.0000000180025095e-35 -77.499999999999986 -294.49999999999994
decision_type=2 2 2 2 2 2 2 2 2
left_child=6 2 3 -2 -5 7 -1 8 -4
right_child=1 -3 5 4 -6 -7 -8 -9 -10
leaf_value=-0.036061627981212534 -0.018176311652144613 0.012915095001609943 0.023544197968907818 -0.0092758137065259566 0.0088389347182855123 -0.020642209628560011 0.029384230492251914 0.016352739488821662 -0.0025843559831833359
leaf_weight=46.816937673836946 2642.5984414480627 1781.141822014004 402.84667438175529 2275.3789004674181 1247.6971064554527 406.85477728769183 701.24699720181525 1342.6481701331213 2816.4127373080701
leaf_count=414 49909 22248 6922 30776 16296 10764 4645 14805 40027
internal_value=0 -0.00142211 -0.00380322 -0.00942482 -0.00258355 0.0029762 0.0239841 0.00529648 0.000382214
internal_weight=0 12915.6 11134.4 6165.67 3523.08 4968.76 748.064 4561.91 3219.26
internal_count=196806 191747 169499 96981 47072 72518 5059 61754 46949
is_linear=0
shrinkage=0.1


Tree=60
num_leaves=10
num_cat=0
split_feature=419 309 3 32 141 2 8 1 256
split_gain=44.6526 45.2586 46.6837 51.6799 42.5719 33.533 28.3088 31.5382 37.049
threshold=1707.7500000000002 1.0000000180025095e-35 29108.250000000004 675490.50000000012 9858.1168831168852 -4161.4999999999991 0.27160475966146508 -16420.499999999996 1.0000000180025095e-35
decision_type=2 2 2 2 2 2 2 2 2
left_child=1 2 4 -4 5 -1 7 8 -7
right_child=-2 -3 3 -5 -6 6 -8 -9 -10
leaf_value=-0.016547996409769585 0.088813061575718416 -0.012343382052672294 0.022876924021251924 -0.00050915800198833561 0.020128156952780314 -0.018651885180498717 -0.013873115100964555 0.011764402204027585 0.014026990527944492
leaf_weight=1783.9561782889068 56.328817002475262 2595.0978000145406 1928.1004957091063 1698.0006743036211 754.47472994588315 984.21314970869571 1188.7942809723318 2159.1149351224303 504.86391672492027
leaf_count=28734 410 47817 22323 29108 7152 15953 18630 20403 6276
internal_value=0 -0.000403765 0.00232393 0.0116568 -0.00213227 -0.00481626 -0.00028771 0.00387178 -0.00691708
